{"learner":{"attributes":{"scikit_learn":"{\"_estimator_type\": \"regressor\"}"},"feature_names":["region_encoded","month_num","rainfall","temperature","humidity"],"feature_types":["int","int","int","int","int"],"gradient_booster":{"model":{"cats":{"enc":[],"feature_segments":[],"sorted_idx":[]},"gbtree_model_param":{"num_parallel_tree":"1","num_trees":"300"},"iteration_indptr":[0,1,2,3,4,5,6,7,8,9,10,11,12,13,14,15,16,17,18,19,20,21,22,23,24,25,26,27,28,29,30,31,32,33,34,35,36,37,38,39,40,41,42,43,44,45,46,47,48,49,50,51,52,53,54,55,56,57,58,59,60,61,62,63,64,65,66,67,68,69,70,71,72,73,74,75,76,77,78,79,80,81,82,83,84,85,86,87,88,89,90,91,92,93,94,95,96,97,98,99,100,101,102,103,104,105,106,107,108,109,110,111,112,113,114,115,116,117,118,119,120,121,122,123,124,125,126,127,128,129,130,131,132,133,134,135,136,137,138,139,140,141,142,143,144,145,146,147,148,149,150,151,152,153,154,155,156,157,158,159,160,161,162,163,164,165,166,167,168,169,170,171,172,173,174,175,176,177,178,179,180,181,182,183,184,185,186,187,188,189,190,191,192,193,194,195,196,197,198,199,200,201,202,203,204,205,206,207,208,209,210,211,212,213,214,215,216,217,218,219,220,221,222,223,224,225,226,227,228,229,230,231,232,233,234,235,236,237,238,239,240,241,242,243,244,245,246,247,248,249,250,251,252,253,254,255,256,257,258,259,260,261,262,263,264,265,266,267,268,269,270,271,272,273,274,275,276,277,278,279,280,281,282,283,284,285,286,287,288,289,290,291,292,293,294,295,296,297,298,299,300],"tree_info":[0,0,0,0,0,0,0,0,0,0,0,0,0,0,0,0,0,0,0,0,0,0,0,0,0,0,0,0,0,0,0,0,0,0,0,0,0,0,0,0,0,0,0,0,0,0,0,0,0,0,0,0,0,0,0,0,0,0,0,0,0,0,0,0,0,0,0,0,0,0,0,0,0,0,0,0,0,0,0,0,0,0,0,0,0,0,0,0,0,0,0,0,0,0,0,0,0,0,0,0,0,0,0,0,0,0,0,0,0,0,0,0,0,0,0,0,0,0,0,0,0,0,0,0,0,0,0,0,0,0,0,0,0,0,0,0,0,0,0,0,0,0,0,0,0,0,0,0,0,0,0,0,0,0,0,0,0,0,0,0,0,0,0,0,0,0,0,0,0,0,0,0,0,0,0,0,0,0,0,0,0,0,0,0,0,0,0,0,0,0,0,0,0,0,0,0,0,0,0,0,0,0,0,0,0,0,0,0,0,0,0,0,0,0,0,0,0,0,0,0,0,0,0,0,0,0,0,0,0,0,0,0,0,0,0,0,0,0,0,0,0,0,0,0,0,0,0,0,0,0,0,0,0,0,0,0,0,0,0,0,0,0,0,0,0,0,0,0,0,0,0,0,0,0,0,0,0,0,0,0,0,0,0,0,0,0,0,0,0,0,0,0,0,0,0,0,0,0,0,0],"trees":[{"base_weights":[6.0218584E-2,-8.708142E0,2.5787857E1,-4.8918653E-1,-1.8811901E1,-6.0474844E0,4.09209E1,-2.2068382E1,4.335116E0,-2.677699E1,-1.510076E1,-1.6305822E1,7.6926093E0,9.58446E1,2.9234718E1,-2.8064198E0,-2.0396479E1,2.1279064E1,-3.3451173E0,-2.3592512E1,-2.7842926E1,-1.7238226E1,-8.4448185E0,-9.958979E0,-2.3105354E1,-1.0701776E0,1.7549965E1,5.9122192E1,1.4953989E2,4.995224E0,3.7528442E1,-1.8634838E1,-2.1571625E1,8.029901E0,7.607306E1,-1.8627558E1,1.8732753E0,-2.867677E0,-2.136169E0,-2.9136894E0,-2.5112421E1,-1.0293529E1,-2.0696268E1,-7.2799006E0,-1.6303856E1,-2.1298847E1,-1.8041118E0,-2.4600868E0,-2.2279415E1,9.5318377E-1,2.5468433E0,2.385919E0,7.849341E0,6.255871E0,1.9441806E2,1.7238205E1,-1.4175871E1,1.0456028E2,2.5623957E1,-2.3965511E0,-1.5170578E0,-2.0535276E0,-2.2189815E0,-3.6601004E-1,3.017432E0,6.486707E0,1.1771409E1,-1.5555083E0,-2.3411233E0,1.7704556E0,-4.4300723E-1,-2.138985E0,-2.6733968E0,3.540103E-1,-1.3173534E0,-1.9811844E0,-2.6817722E0,-8.7746096E-1,1.0479803E0,-1.3034807E0,-1.8840542E0,-2.0001152E0,-2.3440497E0,2.180488E-1,-9.875733E-1,-2.1053357E0,-2.3341792E0,1.6610773E1,2.1974249E1,4.981377E-1,3.165099E0,-1.9699754E0,-1.121025E0,1.2237073E1,6.872851E0,1.4928902E0,3.114393E0],"categories":[],"categories_nodes":[],"categories_segments":[],"categories_sizes":[],"default_left":[0,0,0,0,0,0,0,0,0,0,0,0,0,0,0,0,0,0,0,0,0,0,0,0,0,0,0,0,0,0,0,0,0,0,0,0,0,0,0,0,0,0,0,0,0,0,0,0,0,0,0,0,0,0,0,0,0,0,0,0,0,0,0,0,0,0,0,0,0,0,0,0,0,0,0,0,0,0,0,0,0,0,0,0,0,0,0,0,0,0,0,0,0,0,0,0,0],"id":0,"left_children":[1,3,5,7,9,11,13,15,17,19,21,23,25,27,29,-1,31,33,35,37,39,41,43,45,47,-1,49,51,53,55,57,59,61,63,65,67,69,-1,-1,-1,71,73,75,77,79,81,83,-1,85,-1,-1,-1,-1,-1,87,89,91,93,95,-1,-1,-1,-1,-1,-1,-1,-1,-1,-1,-1,-1,-1,-1,-1,-1,-1,-1,-1,-1,-1,-1,-1,-1,-1,-1,-1,-1,-1,-1,-1,-1,-1,-1,-1,-1,-1,-1],"loss_changes":[6.630518E6,1.8203619E6,3.5995175E6,1.2586156E6,2.90255E5,3.3953434E5,3.247517E6,2.15715E4,1.2859201E6,9.9475E3,9.53165E4,5.9281406E4,1.8694742E5,1.7421355E6,8.395385E5,0E0,3.1815625E3,2.2368425E6,5.423334E5,8.347656E3,7.518375E3,1.21735375E5,1.4831648E4,6.608129E4,2.7328125E2,0E0,4.235989E4,3.5948038E5,1.3931175E6,2.5044667E5,2.480633E6,1.2563234E4,2.054375E2,6.428804E5,2.7234175E5,2.5077625E4,5.0601406E5,0E0,0E0,0E0,4.0037188E3,6.737781E4,1.7816625E4,3.7892867E4,1.4958516E3,3.6214062E2,1.3433164E4,0E0,8.040625E1,0E0,0E0,0E0,0E0,0E0,1.33414E5,1.148447E5,6.5939688E3,2.90896E5,1.5562738E5,0E0,0E0,0E0,0E0,0E0,0E0,0E0,0E0,0E0,0E0,0E0,0E0,0E0,0E0,0E0,0E0,0E0,0E0,0E0,0E0,0E0,0E0,0E0,0E0,0E0,0E0,0E0,0E0,0E0,0E0,0E0,0E0,0E0,0E0,0E0,0E0,0E0,0E0],"parents":[2147483647,0,0,1,1,2,2,3,3,4,4,5,5,6,6,7,7,8,8,9,9,10,10,11,11,12,12,13,13,14,14,16,16,17,17,18,18,19,19,20,20,21,21,22,22,23,23,24,24,26,26,27,27,28,28,29,29,30,30,31,31,32,32,33,33,34,34,35,35,36,36,40,40,41,41,42,42,43,43,44,44,45,45,46,46,48,48,54,54,55,55,56,56,57,57,58,58],"right_children":[2,4,6,8,10,12,14,16,18,20,22,24,26,28,30,-1,32,34,36,38,40,42,44,46,48,-1,50,52,54,56,58,60,62,64,66,68,70,-1,-1,-1,72,74,76,78,80,82,84,-1,86,-1,-1,-1,-1,-1,88,90,92,94,96,-1,-1,-1,-1,-1,-1,-1,-1,-1,-1,-1,-1,-1,-1,-1,-1,-1,-1,-1,-1,-1,-1,-1,-1,-1,-1,-1,-1,-1,-1,-1,-1,-1,-1,-1,-1,-1,-1],"split_conditions":[2.8E2,2.8E1,4E0,3E0,4E0,3E0,6E0,1E0,6E0,4E0,6E0,2E0,8E0,5E0,9E0,-2.8064198E0,3E0,5E0,9E0,2E0,6E0,4E0,1.5E1,1E0,8E0,-1.0701776E0,9E0,8E0,8E0,8E0,1E1,2E0,2E0,4E0,1.5E2,8E0,1.1E1,-2.867677E0,-2.136169E0,-2.9136894E0,2E0,6E0,1.5E1,1.4E1,1.6E1,9E0,9E0,-2.4600868E0,9E0,9.5318377E-1,2.5468433E0,2.385919E0,7.849341E0,6.255871E0,9E0,7E0,8E0,9E0,8E0,-2.3965511E0,-1.5170578E0,-2.0535276E0,-2.2189815E0,-3.6601004E-1,3.017432E0,6.486707E0,1.1771409E1,-1.5555083E0,-2.3411233E0,1.7704556E0,-4.4300723E-1,-2.138985E0,-2.6733968E0,3.540103E-1,-1.3173534E0,-1.9811844E0,-2.6817722E0,-8.7746096E-1,1.0479803E0,-1.3034807E0,-1.8840542E0,-2.0001152E0,-2.3440497E0,2.180488E-1,-9.875733E-1,-2.1053357E0,-2.3341792E0,1.6610773E1,2.1974249E1,4.981377E-1,3.165099E0,-1.9699754E0,-1.121025E0,1.2237073E1,6.872851E0,1.4928902E0,3.114393E0],"split_indices":[2,3,0,0,0,0,0,0,0,1,1,0,1,0,0,0,1,0,0,0,1,1,0,0,1,0,1,1,1,0,0,0,0,0,2,0,0,0,0,0,0,0,0,0,0,1,1,0,1,0,0,0,0,0,1,0,1,1,1,0,0,0,0,0,0,0,0,0,0,0,0,0,0,0,0,0,0,0,0,0,0,0,0,0,0,0,0,0,0,0,0,0,0,0,0,0,0],"split_type":[0,0,0,0,0,0,0,0,0,0,0,0,0,0,0,0,0,0,0,0,0,0,0,0,0,0,0,0,0,0,0,0,0,0,0,0,0,0,0,0,0,0,0,0,0,0,0,0,0,0,0,0,0,0,0,0,0,0,0,0,0,0,0,0,0,0,0,0,0,0,0,0,0,0,0,0,0,0,0,0,0,0,0,0,0,0,0,0,0,0,0,0,0,0,0,0,0],"sum_hessian":[2.939E4,2.192E4,7.47E3,1.2088E4,9.832E3,2.407E3,5.063E3,2.208E3,9.88E3,3.123E3,6.709E3,1.378E3,1.029E3,8.87E2,4.176E3,4.78E2,1.73E3,3.081E3,6.799E3,7.89E2,2.334E3,5.077E3,1.632E3,7.14E2,6.64E2,3.59E2,6.7E2,5.28E2,3.59E2,1.065E3,3.111E3,6.99E2,1.031E3,2.482E3,5.99E2,1.73E3,5.069E3,2.37E2,5.52E2,1.577E3,7.57E2,1.689E3,3.388E3,1.423E3,2.09E2,2.98E2,4.16E2,2.26E2,4.38E2,3.34E2,3.36E2,1.88E2,3.4E2,1.23E2,2.36E2,6.5E2,4.15E2,4.68E2,2.643E3,2.73E2,4.26E2,3.98E2,6.33E2,1.625E3,8.57E2,4.74E2,1.25E2,1.056E3,6.74E2,1.443E3,3.626E3,2.34E2,5.23E2,2.91E2,1.398E3,2.964E3,4.24E2,1.313E3,1.1E2,9.4E1,1.15E2,1.92E2,1.06E2,2.79E2,1.37E2,2.13E2,2.25E2,1.15E2,1.21E2,3.52E2,2.98E2,1.43E2,2.72E2,3.11E2,1.57E2,9.01E2,1.742E3],"tree_param":{"num_deleted":"0","num_feature":"5","num_nodes":"97","size_leaf_vector":"1"}},{"base_weights":[1.3203473E-1,-7.805076E0,2.3557446E1,-4.054172E-1,-1.6928633E1,-6.137186E0,3.7139458E1,-1.9792944E1,3.8850183E0,-2.4010956E1,-1.3635119E1,-1.4576736E1,5.3396454E0,8.376789E1,2.696703E1,-2.4974463E0,-1.8328945E1,1.8705393E1,-2.7610195E0,-2.1369698E1,-2.490372E1,-1.5702019E1,-7.226355E0,-8.782097E0,-2.0981436E0,1.4506522E1,-1.0774313E0,5.3065823E1,1.2760356E2,5.548631E0,3.4216034E1,-1.6672358E1,-1.9398226E0,7.117019E0,6.7595894E1,-1.6650532E1,1.9985403E0,-2.5861225E0,-1.935654E1,-2.6185927E0,-2.217149E1,-9.224401E0,-1.8889727E1,-6.033251E0,-1.5091691E1,-1.8604534E1,-1.6906269E0,1.7885164E0,1.0962266E0,7.033755E0,2.181002E0,1.6129675E2,6.384502E0,1.606635E1,-1.0963619E1,9.5480545E1,2.3083012E1,-2.169289E0,-1.3417789E0,-3.12254E-1,2.5978625E0,5.695387E0,1.0602855E1,-1.3699417E0,-2.1168287E0,1.6695426E0,-3.832703E-1,-2.034929E0,-1.8638737E0,-1.7769679E0,-2.4064884E0,4.2613688E-1,-1.2131208E0,-1.8097006E0,-2.4218788E0,-7.2004E-1,8.177803E-1,-1.2912792E0,-1.669568E0,-2.0696723E0,-1.7507766E0,-8.9944535E-1,2.114626E-1,1.7712255E1,1.4375968E1,5.670812E-1,2.8592253E0,-8.0455536E-1,-1.6638066E0,6.265995E0,1.121574E1,4.2430944E0,1.9478928E0],"categories":[],"categories_nodes":[],"categories_segments":[],"categories_sizes":[],"default_left":[0,0,0,0,0,0,0,0,0,0,0,0,0,0,0,0,0,0,0,0,0,0,0,0,0,0,0,0,0,0,0,0,0,0,0,0,0,0,0,0,0,0,0,0,0,0,0,0,0,0,0,0,0,0,0,0,0,0,0,0,0,0,0,0,0,0,0,0,0,0,0,0,0,0,0,0,0,0,0,0,0,0,0,0,0,0,0,0,0,0,0,0,0],"id":1,"left_children":[1,3,5,7,9,11,13,15,17,19,21,23,25,27,29,-1,31,33,35,37,39,41,43,45,-1,47,-1,49,51,53,55,57,-1,59,61,63,65,-1,67,-1,69,71,73,75,77,79,81,-1,-1,-1,-1,83,-1,85,87,89,91,-1,-1,-1,-1,-1,-1,-1,-1,-1,-1,-1,-1,-1,-1,-1,-1,-1,-1,-1,-1,-1,-1,-1,-1,-1,-1,-1,-1,-1,-1,-1,-1,-1,-1,-1,-1],"loss_changes":[5.485121E6,1.4876026E6,3.0113618E6,1.01222244E6,2.2985075E5,2.2711603E5,2.4277045E6,1.626875E4,9.8147344E5,6.85075E3,8.913975E4,4.9955312E4,1.4698467E5,1.2273695E6,6.5299775E5,0E0,2.728625E3,1.747361E6,4.548561E5,6.7150625E3,7.596125E3,1.050105E5,1.5345898E4,4.949362E4,0E0,7.3959375E3,0E0,2.9052012E5,7.99584E5,1.8513598E5,2.141508E6,1.0868922E4,0E0,4.819518E5,2.3568125E5,2.3121719E4,4.392822E5,0E0,1.6203125E1,0E0,5.8398125E3,6.5987016E4,1.3979875E4,2.377746E4,5.393125E2,3.214453E2,1.1525283E4,0E0,0E0,0E0,0E0,4.2811E4,0E0,8.460686E4,6.737875E3,2.5734E5,1.8472925E5,0E0,0E0,0E0,0E0,0E0,0E0,0E0,0E0,0E0,0E0,0E0,0E0,0E0,0E0,0E0,0E0,0E0,0E0,0E0,0E0,0E0,0E0,0E0,0E0,0E0,0E0,0E0,0E0,0E0,0E0,0E0,0E0,0E0,0E0,0E0,0E0],"parents":[2147483647,0,0,1,1,2,2,3,3,4,4,5,5,6,6,7,7,8,8,9,9,10,10,11,11,12,12,13,13,14,14,16,16,17,17,18,18,19,19,20,20,21,21,22,22,23,23,25,25,27,27,28,28,29,29,30,30,31,31,33,33,34,34,35,35,36,36,38,38,40,40,41,41,42,42,43,43,44,44,45,45,46,46,51,51,53,53,54,54,55,55,56,56],"right_children":[2,4,6,8,10,12,14,16,18,20,22,24,26,28,30,-1,32,34,36,38,40,42,44,46,-1,48,-1,50,52,54,56,58,-1,60,62,64,66,-1,68,-1,70,72,74,76,78,80,82,-1,-1,-1,-1,84,-1,86,88,90,92,-1,-1,-1,-1,-1,-1,-1,-1,-1,-1,-1,-1,-1,-1,-1,-1,-1,-1,-1,-1,-1,-1,-1,-1,-1,-1,-1,-1,-1,-1,-1,-1,-1,-1,-1,-1],"split_conditions":[2.8E2,2.8E1,4E0,3E0,4E0,3E0,6E0,1E0,6E0,5E1,2E2,2E0,3E2,5E0,9E0,-2.4974463E0,8E1,5E0,9E0,2E0,2E2,5E1,1.5E1,1E0,-2.0981436E0,2.9E2,-1.0774313E0,3E2,3E2,8E0,1E1,2E0,-1.9398226E0,4E0,1.5E2,8E0,1.1E1,-2.5861225E0,3E0,-2.6185927E0,2E0,6E0,1.5E1,1.4E1,1.6E1,2.9E2,2.9E2,1.7885164E0,1.0962266E0,7.033755E0,2.181002E0,2.9E2,6.384502E0,7E0,3E2,2.9E2,1.1E1,-2.169289E0,-1.3417789E0,-3.12254E-1,2.5978625E0,5.695387E0,1.0602855E1,-1.3699417E0,-2.1168287E0,1.6695426E0,-3.832703E-1,-2.034929E0,-1.8638737E0,-1.7769679E0,-2.4064884E0,4.2613688E-1,-1.2131208E0,-1.8097006E0,-2.4218788E0,-7.2004E-1,8.177803E-1,-1.2912792E0,-1.669568E0,-2.0696723E0,-1.7507766E0,-8.9944535E-1,2.114626E-1,1.7712255E1,1.4375968E1,5.670812E-1,2.8592253E0,-8.0455536E-1,-1.6638066E0,6.265995E0,1.121574E1,4.2430944E0,1.9478928E0],"split_indices":[2,3,0,0,0,0,0,0,0,2,2,0,2,0,0,0,2,0,0,0,2,2,0,0,0,2,0,2,2,0,0,0,0,0,2,0,0,0,0,0,0,0,0,0,0,2,2,0,0,0,0,2,0,0,2,2,0,0,0,0,0,0,0,0,0,0,0,0,0,0,0,0,0,0,0,0,0,0,0,0,0,0,0,0,0,0,0,0,0,0,0,0,0],"split_type":[0,0,0,0,0,0,0,0,0,0,0,0,0,0,0,0,0,0,0,0,0,0,0,0,0,0,0,0,0,0,0,0,0,0,0,0,0,0,0,0,0,0,0,0,0,0,0,0,0,0,0,0,0,0,0,0,0,0,0,0,0,0,0,0,0,0,0,0,0,0,0,0,0,0,0,0,0,0,0,0,0,0,0,0,0,0,0,0,0,0,0,0,0],"sum_hessian":[2.9499E4,2.2034E4,7.465E3,1.2167E4,9.867E3,2.343E3,5.122E3,2.204E3,9.963E3,3.13E3,6.737E3,1.35E3,9.93E2,9.16E2,4.206E3,4.82E2,1.722E3,3.084E3,6.879E3,7.97E2,2.333E3,5.093E3,1.644E3,7.1E2,6.4E2,6.33E2,3.6E2,5.4E2,3.76E2,1.064E3,3.142E3,6.82E2,1.04E3,2.494E3,5.9E2,1.755E3,5.124E3,2.43E2,5.54E2,1.582E3,7.51E2,1.681E3,3.412E3,1.429E3,2.15E2,2.97E2,4.13E2,3.22E2,3.11E2,3.47E2,1.93E2,2.45E2,1.31E2,6.5E2,4.14E2,4.82E2,2.66E3,2.66E2,4.16E2,1.617E3,8.77E2,4.64E2,1.26E2,1.064E3,6.91E2,1.455E3,3.669E3,2.21E2,3.33E2,2.29E2,5.22E2,2.98E2,1.383E3,2.974E3,4.38E2,1.321E3,1.08E2,9.5E1,1.2E2,9.6E1,2.01E2,1.41E2,2.72E2,1.24E2,1.21E2,3.56E2,2.94E2,2.75E2,1.39E2,1.64E2,3.18E2,4.16E2,2.244E3],"tree_param":{"num_deleted":"0","num_feature":"5","num_nodes":"93","size_leaf_vector":"1"}},{"base_weights":[6.9259E-2,-6.8562727E0,2.0409641E1,-1.7351042E-1,-1.5095566E1,-5.210747E0,3.228328E1,-1.7729656E1,3.759764E0,-2.1703953E1,-1.1997758E1,-1.2981559E1,5.4037046E0,7.245549E1,2.38053E1,-2.2353916E0,-1.646147E1,1.7045067E1,-2.2685776E0,-1.9529705E1,-2.2457096E1,-1.388853E1,-6.002851E0,-7.594716E0,-1.8799595E1,2.104403E0,-2.342929E0,4.8767292E1,1.08352936E2,4.373055E0,3.0419144E1,-1.4683373E1,-1.760662E1,5.9279494E0,6.4796646E1,-1.1948928E1,3.3934474E0,-2.3561416E0,-1.7755442E0,-2.3620796E0,-2.0017017E1,-8.135071E0,-1.6734156E1,-4.972824E0,-1.3188299E1,-1.6558914E1,-1.139473E0,-1.8089459E0,-1.9989756E0,5.449319E-1,-9.6779865E-1,6.4131E0,2.028993E0,1.3587422E1,5.4461913E0,1.4241412E1,-1.0765636E1,7.831229E1,2.184005E1,-1.9404055E0,-1.1583831E0,-1.6374674E0,-1.8349777E0,-3.4050167E-1,2.324931E0,5.406858E0,1.0582793E1,-1.4629732E0,-5.8625054E-1,3.992366E0,-3.3206037E-1,-1.6270298E0,-2.1591046E0,4.482966E-1,-1.0812372E0,-1.6008904E0,-2.1650739E0,-6.379483E-1,1.0749437E0,-1.0741044E0,-1.5237842E0,-1.8091688E0,-1.5740906E0,-7.962629E-1,2.438735E-1,4.5275736E-1,2.59156E0,-7.419223E-1,-1.676664E0,4.637332E0,9.453932E0,2.8154473E0,1.0175438E0],"categories":[],"categories_nodes":[],"categories_segments":[],"categories_sizes":[],"default_left":[0,0,0,0,0,0,0,0,0,0,0,0,0,0,0,0,0,0,0,0,0,0,0,0,0,0,0,0,0,0,0,0,0,0,0,0,0,0,0,0,0,0,0,0,0,0,0,0,0,0,0,0,0,0,0,0,0,0,0,0,0,0,0,0,0,0,0,0,0,0,0,0,0,0,0,0,0,0,0,0,0,0,0,0,0,0,0,0,0,0,0,0,0],"id":2,"left_children":[1,3,5,7,9,11,13,15,17,19,21,23,25,27,29,-1,31,33,35,37,39,41,43,45,47,-1,49,51,53,55,57,59,61,63,65,67,69,-1,-1,-1,71,73,75,77,79,81,83,-1,-1,-1,-1,-1,-1,-1,-1,85,87,89,91,-1,-1,-1,-1,-1,-1,-1,-1,-1,-1,-1,-1,-1,-1,-1,-1,-1,-1,-1,-1,-1,-1,-1,-1,-1,-1,-1,-1,-1,-1,-1,-1,-1,-1],"loss_changes":[4.1472928E6,1.2093071E6,2.2750295E6,8.3754306E5,2.010975E5,1.9547214E5,1.7386355E6,1.26510625E4,7.9363406E5,4.699875E3,7.584981E4,4.27315E4,1.21451484E5,7.51524E5,5.4235775E5,0E0,3.2966562E3,1.6415659E6,3.7368297E5,5.4115938E3,6.12625E3,8.323106E4,1.1835555E4,4.118178E4,1.9367188E2,0E0,3.8404805E4,2.3408325E5,5.1615175E5,1.604531E5,1.2921502E6,9.871266E3,6.6721875E2,4.0584484E5,2.5134675E5,4.096653E4,1.0552656E6,0E0,0E0,0E0,4.1130625E3,5.7039195E4,1.1798375E4,3.1207695E4,8.444961E2,8.8859375E1,1.0151506E4,0E0,0E0,0E0,0E0,0E0,0E0,0E0,0E0,7.359342E4,8.390305E3,2.43351E5,1.965205E5,0E0,0E0,0E0,0E0,0E0,0E0,0E0,0E0,0E0,0E0,0E0,0E0,0E0,0E0,0E0,0E0,0E0,0E0,0E0,0E0,0E0,0E0,0E0,0E0,0E0,0E0,0E0,0E0,0E0,0E0,0E0,0E0,0E0,0E0],"parents":[2147483647,0,0,1,1,2,2,3,3,4,4,5,5,6,6,7,7,8,8,9,9,10,10,11,11,12,12,13,13,14,14,16,16,17,17,18,18,19,19,20,20,21,21,22,22,23,23,24,24,26,26,27,27,28,28,29,29,30,30,31,31,32,32,33,33,34,34,35,35,36,36,40,40,41,41,42,42,43,43,44,44,45,45,46,46,55,55,56,56,57,57,58,58],"right_children":[2,4,6,8,10,12,14,16,18,20,22,24,26,28,30,-1,32,34,36,38,40,42,44,46,48,-1,50,52,54,56,58,60,62,64,66,68,70,-1,-1,-1,72,74,76,78,80,82,84,-1,-1,-1,-1,-1,-1,-1,-1,86,88,90,92,-1,-1,-1,-1,-1,-1,-1,-1,-1,-1,-1,-1,-1,-1,-1,-1,-1,-1,-1,-1,-1,-1,-1,-1,-1,-1,-1,-1,-1,-1,-1,-1,-1,-1],"split_conditions":[2.8E2,2.8E1,4E0,3E0,4E0,3E0,6E0,1E0,6E0,5E1,2E2,2E0,2.9E2,5E0,9E0,-2.2353916E0,8E1,5E0,1E1,2E0,2E2,5E1,1.5E1,1E0,3E2,2.104403E0,3E2,3E2,3E2,8E0,1E1,2E0,2E0,4E0,1.5E2,9E0,1.1E1,-2.3561416E0,-1.7755442E0,-2.3620796E0,2E0,6E0,1.5E1,1.4E1,1.6E1,2.9E2,2.9E2,-1.8089459E0,-1.9989756E0,5.449319E-1,-9.6779865E-1,6.4131E0,2.028993E0,1.3587422E1,5.4461913E0,7E0,3E2,2.9E2,3E2,-1.9404055E0,-1.1583831E0,-1.6374674E0,-1.8349777E0,-3.4050167E-1,2.324931E0,5.406858E0,1.0582793E1,-1.4629732E0,-5.8625054E-1,3.992366E0,-3.3206037E-1,-1.6270298E0,-2.1591046E0,4.482966E-1,-1.0812372E0,-1.6008904E0,-2.1650739E0,-6.379483E-1,1.0749437E0,-1.0741044E0,-1.5237842E0,-1.8091688E0,-1.5740906E0,-7.962629E-1,2.438735E-1,4.5275736E-1,2.59156E0,-7.419223E-1,-1.676664E0,4.637332E0,9.453932E0,2.8154473E0,1.0175438E0],"split_indices":[2,3,0,0,0,0,0,0,0,2,2,0,2,0,0,0,2,0,0,0,2,2,0,0,2,0,2,2,2,0,0,0,0,0,2,0,0,0,0,0,0,0,0,0,0,2,2,0,0,0,0,0,0,0,0,0,2,2,2,0,0,0,0,0,0,0,0,0,0,0,0,0,0,0,0,0,0,0,0,0,0,0,0,0,0,0,0,0,0,0,0,0,0],"split_type":[0,0,0,0,0,0,0,0,0,0,0,0,0,0,0,0,0,0,0,0,0,0,0,0,0,0,0,0,0,0,0,0,0,0,0,0,0,0,0,0,0,0,0,0,0,0,0,0,0,0,0,0,0,0,0,0,0,0,0,0,0,0,0,0,0,0,0,0,0,0,0,0,0,0,0,0,0,0,0,0,0,0,0,0,0,0,0,0,0,0,0,0,0],"sum_hessian":[2.9439E4,2.1962E4,7.477E3,1.2127E4,9.835E3,2.368E3,5.109E3,2.219E3,9.908E3,3.137E3,6.698E3,1.367E3,1.001E3,8.89E2,4.22E3,4.74E2,1.745E3,3.092E3,6.816E3,8.14E2,2.323E3,5.091E3,1.607E3,7.11E2,6.56E2,3.31E2,6.7E2,5.37E2,3.52E2,1.072E3,3.148E3,6.89E2,1.056E3,2.509E3,5.83E2,2.515E3,4.301E3,2.45E2,5.69E2,1.567E3,7.56E2,1.686E3,3.405E3,1.407E3,2E2,2.97E2,4.14E2,4.21E2,2.35E2,3.25E2,3.45E2,3.48E2,1.89E2,2.32E2,1.2E2,6.49E2,4.23E2,4.77E2,2.671E3,2.71E2,4.18E2,4.06E2,6.5E2,1.631E3,8.78E2,4.64E2,1.19E2,1.745E3,7.7E2,6.67E2,3.634E3,2.27E2,5.29E2,2.95E2,1.391E3,2.971E3,4.34E2,1.292E3,1.15E2,9.4E1,1.06E2,9.6E1,2.01E2,1.42E2,2.72E2,3.55E2,2.94E2,2.73E2,1.5E2,1.62E2,3.15E2,1.732E3,9.39E2],"tree_param":{"num_deleted":"0","num_feature":"5","num_nodes":"93","size_leaf_vector":"1"}},{"base_weights":[-1.40904505E-2,-6.2196717E0,1.8283417E1,-2.956553E-1,-1.3480661E1,9.2914516E-1,2.3044458E1,-3.8560245E0,5.1992383E0,-1.4817247E1,-9.258038E-1,2.6050699E0,2.0142832E0,-3.6521587E-1,-3.9603826E-1,7.4134725E-1,2.764804E-1,-1.0217565E0,-1.7103093E0],"categories":[],"categories_nodes":[],"categories_segments":[],"categories_sizes":[],"default_left":[0,0,0,0,0,0,0,0,0,0,0,0,0,0,0,0,0,0,0],"id":3,"left_children":[1,3,5,7,9,-1,11,13,15,17,-1,-1,-1,-1,-1,-1,-1,-1,-1],"loss_changes":[3.3379315E6,9.442443E5,3.185145E5,2.36547E5,5.55285E4,0E0,4.193025E4,1.41625E2,2.5605492E4,7.857625E4,0E0,0E0,0E0,0E0,0E0,0E0,0E0,0E0,0E0],"parents":[2147483647,0,0,1,1,2,2,3,3,4,4,6,6,7,7,8,8,9,9],"right_children":[2,4,6,8,10,-1,12,14,16,18,-1,-1,-1,-1,-1,-1,-1,-1,-1],"split_conditions":[2.8E2,2.8E1,8E0,1.2E2,6E0,9.2914516E-1,9E0,2E0,1.1E1,4E0,-9.258038E-1,2.6050699E0,2.0142832E0,-3.6521587E-1,-3.9603826E-1,7.4134725E-1,2.764804E-1,-1.0217565E0,-1.7103093E0],"split_indices":[2,3,1,2,1,0,1,1,1,1,0,0,0,0,0,0,0,0,0],"split_type":[0,0,0,0,0,0,0,0,0,0,0,0,0,0,0,0,0,0,0],"sum_hessian":[2.9395E4,2.1951E4,7.444E3,1.2089E4,9.862E3,2.578E3,4.866E3,7.336E3,4.753E3,7.489E3,2.373E3,2.386E3,2.48E3,2.496E3,4.84E3,2.488E3,2.265E3,2.488E3,5.001E3],"tree_param":{"num_deleted":"0","num_feature":"5","num_nodes":"19","size_leaf_vector":"1"}},{"base_weights":[2.2378142E-1,-5.7285695E0,1.7754244E1,-1.3862823E1,-1.9618683E0,-6.9349313E0,2.9333982E1,-1.699152E1,-9.62082E0,1.5893427E1,-5.7867093E0,-1.3538767E1,1.8146683E0,6.871391E1,2.090859E1,-1.4202715E1,-1.7760363E1,-1.5013275E1,1.1137894E0,5.3576136E0,3.6350365E1,-1.4312637E1,-2.861979E0,-9.181441E0,-1.8250118E0,-9.3311995E-1,7.734242E0,4.151842E1,1.0912636E2,2.142362E0,2.7311773E1,-1.814592E1,-9.885029E-1,-1.9240252E1,-1.6622755E1,-9.5460606E-1,-1.7671368E1,6.531546E0,-8.480429E-1,2.765873E1,-5.2799296E0,2.1736654E1,5.9039497E1,-1.0362208E1,-2.0501461E1,5.9020863E0,-6.3890657E0,-1.706408E1,-3.5287538E0,4.8227125E-1,1.0512484E0,1.635278E0,5.506666E0,5.1094923E0,1.4145227E2,1.0745194E1,-1.1304714E1,7.722961E1,1.8289019E1,-1.950831E0,-1.7150271E0,-2.0265832E0,-1.8071282E0,-1.956767E0,-1.5766886E0,-1.4396709E0,-1.8725452E0,9.2154735E-1,3.568263E-1,1.8716086E0,4.0989885E0,-1.2351476E0,5.353448E-1,3.7137525E0,1.4185593E0,6.883916E0,4.023494E0,-1.7039528E0,-2.4659827E-1,-2.227206E0,-1.7012882E0,-3.91874E-1,1.6925068E0,-1.3858074E0,-4.3577978E-1,-1.474916E0,-1.824734E0,-3.770681E-2,-9.738717E-1,1.2156249E1,1.5836487E1,2.0539649E-1,2.0691738E0,-1.6024159E0,-8.69337E-1,9.467933E0,4.2392387E0,3.5366619E0,1.5063387E0],"categories":[],"categories_nodes":[],"categories_segments":[],"categories_sizes":[],"default_left":[0,0,0,0,0,0,0,0,0,0,0,0,0,0,0,0,0,0,0,0,0,0,0,0,0,0,0,0,0,0,0,0,0,0,0,0,0,0,0,0,0,0,0,0,0,0,0,0,0,0,0,0,0,0,0,0,0,0,0,0,0,0,0,0,0,0,0,0,0,0,0,0,0,0,0,0,0,0,0,0,0,0,0,0,0,0,0,0,0,0,0,0,0,0,0,0,0,0,0],"id":4,"left_children":[1,3,5,7,9,11,13,15,17,19,21,23,25,27,29,31,33,35,37,39,41,43,45,47,-1,-1,49,51,53,55,57,59,-1,61,63,-1,65,67,-1,69,71,73,75,77,79,81,83,85,87,-1,-1,-1,-1,-1,89,91,93,95,97,-1,-1,-1,-1,-1,-1,-1,-1,-1,-1,-1,-1,-1,-1,-1,-1,-1,-1,-1,-1,-1,-1,-1,-1,-1,-1,-1,-1,-1,-1,-1,-1,-1,-1,-1,-1,-1,-1,-1,-1],"loss_changes":[3.0689608E6,6.7268944E5,2.1315442E6,9.206325E4,1.0250433E6,1.376009E5,1.682405E6,8.32E3,1.7089584E5,5.7052994E5,3.0819344E5,2.7690172E4,6.770042E4,9.780075E5,5.0246538E5,1.46158125E4,4.9496875E3,2.8387406E4,5.1410777E4,4.1505972E5,2.9713188E5,7.69715E4,2.8457912E5,3.144236E4,0E0,0E0,5.3688867E3,1.8184881E5,6.66228E5,1.23323805E5,1.4029232E6,2.7989062E2,0E0,1.2570312E3,4.1703438E3,0E0,4.2902188E3,4.9935605E3,0E0,6.658975E4,8.9171516E4,6.3318016E4,6.209625E4,1.0166572E5,7.2124688E3,2.8607547E5,9.952572E4,5.3891406E2,8.0795015E3,0E0,0E0,0E0,0E0,0E0,5.8118E4,5.61485E4,4.9875156E3,2.8595475E5,1.4500444E5,0E0,0E0,0E0,0E0,0E0,0E0,0E0,0E0,0E0,0E0,0E0,0E0,0E0,0E0,0E0,0E0,0E0,0E0,0E0,0E0,0E0,0E0,0E0,0E0,0E0,0E0,0E0,0E0,0E0,0E0,0E0,0E0,0E0,0E0,0E0,0E0,0E0,0E0,0E0,0E0],"parents":[2147483647,0,0,1,1,2,2,3,3,4,4,5,5,6,6,7,7,8,8,9,9,10,10,11,11,12,12,13,13,14,14,15,15,16,16,17,17,18,18,19,19,20,20,21,21,22,22,23,23,26,26,27,27,28,28,29,29,30,30,31,31,33,33,34,34,36,36,37,37,39,39,40,40,41,41,42,42,43,43,44,44,45,45,46,46,47,47,48,48,54,54,55,55,56,56,57,57,58,58],"right_children":[2,4,6,8,10,12,14,16,18,20,22,24,26,28,30,32,34,36,38,40,42,44,46,48,-1,-1,50,52,54,56,58,60,-1,62,64,-1,66,68,-1,70,72,74,76,78,80,82,84,86,88,-1,-1,-1,-1,-1,90,92,94,96,98,-1,-1,-1,-1,-1,-1,-1,-1,-1,-1,-1,-1,-1,-1,-1,-1,-1,-1,-1,-1,-1,-1,-1,-1,-1,-1,-1,-1,-1,-1,-1,-1,-1,-1,-1,-1,-1,-1,-1,-1],"split_conditions":[2.8E2,4E0,4E0,3E0,6E0,3E0,6E0,3E0,7E0,7E0,9E0,2E0,8E0,5E0,9E0,2E0,6E0,3E0,1.2E1,3E0,5E0,8E0,1.1E1,1E0,-1.8250118E0,-9.3311995E-1,9E0,8E0,8E0,8E0,1E1,1E0,-9.885029E-1,2E0,1E0,-9.5460606E-1,4E0,1.1E1,-8.480429E-1,5E0,5E0,1.1E1,1.2E1,7E0,7E0,1E1,1.2E1,8E0,9E0,4.8227125E-1,1.0512484E0,1.635278E0,5.506666E0,5.1094923E0,9E0,7E0,8E0,9E0,1.1E1,-1.950831E0,-1.7150271E0,-2.0265832E0,-1.8071282E0,-1.956767E0,-1.5766886E0,-1.4396709E0,-1.8725452E0,9.2154735E-1,3.568263E-1,1.8716086E0,4.0989885E0,-1.2351476E0,5.353448E-1,3.7137525E0,1.4185593E0,6.883916E0,4.023494E0,-1.7039528E0,-2.4659827E-1,-2.227206E0,-1.7012882E0,-3.91874E-1,1.6925068E0,-1.3858074E0,-4.3577978E-1,-1.474916E0,-1.824734E0,-3.770681E-2,-9.738717E-1,1.2156249E1,1.5836487E1,2.0539649E-1,2.0691738E0,-1.6024159E0,-8.69337E-1,9.467933E0,4.2392387E0,3.5366619E0,1.5063387E0],"split_indices":[2,0,0,0,0,0,0,1,1,1,0,0,1,0,0,0,1,1,1,1,0,0,0,0,0,0,1,1,1,0,0,0,0,0,0,0,1,1,0,0,0,1,1,0,1,0,0,1,1,0,0,0,0,0,1,0,1,1,0,0,0,0,0,0,0,0,0,0,0,0,0,0,0,0,0,0,0,0,0,0,0,0,0,0,0,0,0,0,0,0,0,0,0,0,0,0,0,0,0],"split_type":[0,0,0,0,0,0,0,0,0,0,0,0,0,0,0,0,0,0,0,0,0,0,0,0,0,0,0,0,0,0,0,0,0,0,0,0,0,0,0,0,0,0,0,0,0,0,0,0,0,0,0,0,0,0,0,0,0,0,0,0,0,0,0,0,0,0,0,0,0,0,0,0,0,0,0,0,0,0,0,0,0,0,0,0,0,0,0,0,0,0,0,0,0,0,0,0,0,0,0],"sum_hessian":[2.9409E4,2.1955E4,7.454E3,6.948E3,1.5007E4,2.38E3,5.074E3,3.997E3,2.951E3,2.647E3,1.236E4,1.356E3,1.024E3,8.93E2,4.181E3,8.68E2,3.129E3,1.964E3,9.87E2,1.748E3,8.99E2,3.156E3,9.204E3,7.06E2,6.5E2,3.55E2,6.69E2,5.35E2,3.58E2,1.064E3,3.117E3,4.52E2,4.16E2,1.353E3,1.776E3,6.44E2,1.32E3,6.31E2,3.56E2,5.64E2,1.184E3,5.48E2,3.51E2,1.928E3,1.228E3,2.641E3,6.563E3,2.94E2,4.12E2,3.28E2,3.41E2,1.88E2,3.47E2,1.29E2,2.29E2,6.49E2,4.15E2,4.76E2,2.641E3,1.83E2,2.69E2,7.12E2,6.41E2,3.95E2,1.381E3,3.25E2,9.95E2,3.3E2,3.01E2,3.39E2,2.25E2,7.11E2,4.73E2,1.79E2,3.69E2,2.29E2,1.22E2,1.044E3,8.84E2,8.11E2,4.17E2,1.397E3,1.244E3,1.402E3,5.161E3,1.04E2,1.9E2,2.74E2,1.38E2,1.09E2,1.2E2,3.47E2,3.02E2,1.46E2,2.69E2,3.16E2,1.6E2,4.18E2,2.223E3],"tree_param":{"num_deleted":"0","num_feature":"5","num_nodes":"99","size_leaf_vector":"1"}},{"base_weights":[1.842409E-2,-5.176501E0,1.5272799E1,-1.8695705E-1,-1.1297627E1,-5.570253E0,2.4920961E1,-1.4279055E1,2.9544222E0,-1.6334469E1,-8.9587E0,-1.2149695E1,3.4352956E0,6.3702744E1,1.6604023E1,-1.8628935E0,-1.3082005E1,1.3926641E1,-1.9791808E0,-1.4664807E1,-1.6897367E1,-1.0471787E1,-4.2436123E0,-8.0881605E0,-1.6728436E0,9.722509E0,-8.637369E-1,3.765607E1,1.02311516E2,1.3150538E0,2.1824585E1,-1.1526285E1,-1.4080663E1,5.5512886E0,5.02199E1,-9.916109E0,2.7019837E0,-1.7803072E0,-1.3283112E0,-1.7647905E0,-1.5290984E1,-5.6269164E0,-1.2874149E1,-1.8726681E0,-6.41065E0,-1.5788296E1,-2.4805253E0,1.4181837E0,5.1929694E-1,4.8150907E0,1.7475233E0,1.3310974E2,4.5174365E0,9.0762205E0,-1.0971961E1,6.3732964E1,1.4353498E1,-1.5234531E0,-9.0917844E-1,-1.3129493E0,-1.4599632E0,-2.0154755E-1,1.9549512E0,4.2403655E0,8.0588E0,-1.1571548E0,-3.4786755E-1,3.1616309E0,-2.6050135E-1,-1.1528323E0,-1.6906172E0,5.555419E-1,-8.022534E-1,-1.2180566E0,-1.7492484E0,-6.103082E-1,1.5812763E0,-1.3515877E0,-2.796929E-1,-1.7203684E0,-1.309707E0,-7.9070693E-1,1.1848867E-2,1.4552045E1,1.18786125E1,1.4565174E-1,1.8104028E0,-8.9195675E-1,-1.4926155E0,4.3096695E0,7.346864E0,1.9299358E0,4.9397227E-1],"categories":[],"categories_nodes":[],"categories_segments":[],"categories_sizes":[],"default_left":[0,0,0,0,0,0,0,0,0,0,0,0,0,0,0,0,0,0,0,0,0,0,0,0,0,0,0,0,0,0,0,0,0,0,0,0,0,0,0,0,0,0,0,0,0,0,0,0,0,0,0,0,0,0,0,0,0,0,0,0,0,0,0,0,0,0,0,0,0,0,0,0,0,0,0,0,0,0,0,0,0,0,0,0,0,0,0,0,0,0,0,0,0],"id":5,"left_children":[1,3,5,7,9,11,13,15,17,19,21,23,25,27,29,-1,31,33,35,37,39,41,43,45,-1,47,-1,49,51,53,55,57,59,61,63,65,67,-1,-1,-1,69,71,73,75,77,79,81,-1,-1,-1,-1,83,-1,85,87,89,91,-1,-1,-1,-1,-1,-1,-1,-1,-1,-1,-1,-1,-1,-1,-1,-1,-1,-1,-1,-1,-1,-1,-1,-1,-1,-1,-1,-1,-1,-1,-1,-1,-1,-1,-1,-1],"loss_changes":[2.3395598E6,6.726163E5,1.5083676E6,5.371977E5,1.1636575E5,1.4070475E5,1.6526338E6,1.1274219E4,5.371851E5,2.6986875E3,4.815525E4,2.537939E4,7.6215125E4,9.0624225E5,3.370385E5,0E0,2.5379375E3,9.3533725E5,2.5438352E5,3.22375E3,2.5489375E3,5.9450062E4,8.429604E3,3.1438727E4,0E0,1.32575E4,0E0,1.13951125E5,6.345265E5,1.0270863E5,9.847274E5,6.0454766E3,3.2857812E2,2.6505438E5,1.3354212E5,2.7028E4,6.609839E5,0E0,0E0,0E0,4.375328E3,4.550482E4,1.07355E4,5.890242E4,2.1992465E4,9.4408594E2,5.966786E3,0E0,0E0,0E0,0E0,2.466675E4,0E0,4.537451E4,3.2510547E3,9.2466125E4,1.2435744E5,0E0,0E0,0E0,0E0,0E0,0E0,0E0,0E0,0E0,0E0,0E0,0E0,0E0,0E0,0E0,0E0,0E0,0E0,0E0,0E0,0E0,0E0,0E0,0E0,0E0,0E0,0E0,0E0,0E0,0E0,0E0,0E0,0E0,0E0,0E0,0E0],"parents":[2147483647,0,0,1,1,2,2,3,3,4,4,5,5,6,6,7,7,8,8,9,9,10,10,11,11,12,12,13,13,14,14,16,16,17,17,18,18,19,19,20,20,21,21,22,22,23,23,25,25,27,27,28,28,29,29,30,30,31,31,32,32,33,33,34,34,35,35,36,36,40,40,41,41,42,42,43,43,44,44,45,45,46,46,51,51,53,53,54,54,55,55,56,56],"right_children":[2,4,6,8,10,12,14,16,18,20,22,24,26,28,30,-1,32,34,36,38,40,42,44,46,-1,48,-1,50,52,54,56,58,60,62,64,66,68,-1,-1,-1,70,72,74,76,78,80,82,-1,-1,-1,-1,84,-1,86,88,90,92,-1,-1,-1,-1,-1,-1,-1,-1,-1,-1,-1,-1,-1,-1,-1,-1,-1,-1,-1,-1,-1,-1,-1,-1,-1,-1,-1,-1,-1,-1,-1,-1,-1,-1,-1,-1],"split_conditions":[2.8E2,2.8E1,4E0,3E0,4E0,3E0,6E0,1E0,6E0,5E1,2E2,2E0,3E2,5E0,9E0,-1.8628935E0,8E1,5E0,1E1,2E0,2E2,5E1,1E1,1E0,-1.6728436E0,2.9E2,-8.637369E-1,3E2,3E2,8E0,1E1,2E0,1.2E2,4E0,1.5E2,1.5E2,1.1E1,-1.7803072E0,-1.3283112E0,-1.7647905E0,2E0,6E0,1.5E1,9E0,1.2E1,3E2,2.9E2,1.4181837E0,5.1929694E-1,4.8150907E0,1.7475233E0,2.9E2,4.5174365E0,7E0,3E2,2.9E2,3E2,-1.5234531E0,-9.0917844E-1,-1.3129493E0,-1.4599632E0,-2.0154755E-1,1.9549512E0,4.2403655E0,8.0588E0,-1.1571548E0,-3.4786755E-1,3.1616309E0,-2.6050135E-1,-1.1528323E0,-1.6906172E0,5.555419E-1,-8.022534E-1,-1.2180566E0,-1.7492484E0,-6.103082E-1,1.5812763E0,-1.3515877E0,-2.796929E-1,-1.7203684E0,-1.309707E0,-7.9070693E-1,1.1848867E-2,1.4552045E1,1.18786125E1,1.4565174E-1,1.8104028E0,-8.9195675E-1,-1.4926155E0,4.3096695E0,7.346864E0,1.9299358E0,4.9397227E-1],"split_indices":[2,3,0,0,0,0,0,0,0,2,2,0,2,0,0,0,2,0,0,0,2,2,0,0,0,2,0,2,2,0,0,0,2,0,2,2,0,0,0,0,0,0,0,0,0,2,2,0,0,0,0,2,0,0,2,2,2,0,0,0,0,0,0,0,0,0,0,0,0,0,0,0,0,0,0,0,0,0,0,0,0,0,0,0,0,0,0,0,0,0,0,0,0],"split_type":[0,0,0,0,0,0,0,0,0,0,0,0,0,0,0,0,0,0,0,0,0,0,0,0,0,0,0,0,0,0,0,0,0,0,0,0,0,0,0,0,0,0,0,0,0,0,0,0,0,0,0,0,0,0,0,0,0,0,0,0,0,0,0,0,0,0,0,0,0,0,0,0,0,0,0,0,0,0,0,0,0,0,0,0,0,0,0,0,0,0,0,0,0],"sum_hessian":[2.9521E4,2.2022E4,7.499E3,1.2133E4,9.889E3,2.373E3,5.126E3,2.211E3,9.922E3,3.134E3,6.755E3,1.371E3,1.002E3,9.04E2,4.222E3,4.74E2,1.737E3,3.077E3,6.845E3,7.97E2,2.337E3,5.113E3,1.642E3,7.28E2,6.43E2,6.59E2,3.43E2,5.41E2,3.63E2,1.075E3,3.147E3,6.84E2,1.053E3,2.501E3,5.76E2,2.539E3,4.306E3,2.4E2,5.57E2,1.586E3,7.51E2,1.696E3,3.417E3,7.85E2,8.57E2,3.06E2,4.22E2,3.31E2,3.28E2,3.55E2,1.86E2,2.35E2,1.28E2,6.59E2,4.16E2,4.75E2,2.672E3,2.69E2,4.15E2,3.81E2,6.72E2,1.624E3,8.77E2,4.6E2,1.16E2,2.019E3,5.2E2,6.67E2,3.639E3,2.28E2,5.23E2,2.99E2,1.397E3,2.974E3,4.43E2,6.34E2,1.51E2,2.88E2,5.69E2,1.97E2,1.09E2,1.36E2,2.86E2,1.21E2,1.14E2,3.58E2,3.01E2,2.76E2,1.4E2,1.54E2,3.21E2,1.751E3,9.21E2],"tree_param":{"num_deleted":"0","num_feature":"5","num_nodes":"93","size_leaf_vector":"1"}},{"base_weights":[-1.3905984E-1,-4.7738123E0,1.3527935E1,-1.1379695E1,-1.7138853E0,-5.4111543E0,2.2329472E1,-1.3869654E1,-8.001311E0,1.3490579E1,-4.937447E0,-1.0435275E1,1.4659364E0,5.5166016E1,1.5390599E1,-1.6251444E1,-1.3204925E1,-1.2297244E1,8.2095754E-1,4.4286633E0,3.1111082E1,-1.2024822E1,-2.5080743E0,-6.5567966E0,-1.4729234E0,-8.0277866E-1,6.53867E0,3.2259735E1,8.838911E1,1.7462125E0,2.0083849E1,-1.6506432E0,-1.4128077E0,-1.05715475E1,-1.3921642E1,-9.240103E0,-1.5230339E1,5.01955E0,-6.7291737E-1,2.1831219E1,-3.97892E0,1.9121628E1,4.924446E1,-8.614271E0,-1.7423859E1,-5.607581E0,3.6465843E0,-1.3839801E1,-1.1884276E0,2.7050844E-1,1.010259E0,1.2522689E0,4.2578236E1,4.0967326E0,1.1364092E2,8.896287E0,-9.295738E0,5.6688816E1,1.3558904E1,-1.372372E0,-8.482817E-1,-1.5269797E0,-1.2873086E0,-8.001052E-1,-1.1558422E0,-1.4266337E0,-1.5695415E0,7.733344E-1,1.8658242E-1,1.3518275E0,3.388043E0,-1.0642315E0,5.8625776E-1,3.0150762E0,1.3256075E0,6.926329E0,3.881253E0,-1.4350705E0,-1.5997784E-1,-1.9040343E0,-1.4140142E0,-4.024975E-1,-1.1765546E0,1.507127E0,-9.135583E-2,-1.1010103E0,-1.5249146E0,2.136561E-1,-7.7349156E-1,3.9382958E0,4.53548E0,9.876283E0,1.2780207E1,1.505308E0,-3.206823E-1,-1.2315077E0,-7.6766056E-1,6.965484E0,2.8664005E0,3.0337865E0,1.0395497E0],"categories":[],"categories_nodes":[],"categories_segments":[],"categories_sizes":[],"default_left":[0,0,0,0,0,0,0,0,0,0,0,0,0,0,0,0,0,0,0,0,0,0,0,0,0,0,0,0,0,0,0,0,0,0,0,0,0,0,0,0,0,0,0,0,0,0,0,0,0,0,0,0,0,0,0,0,0,0,0,0,0,0,0,0,0,0,0,0,0,0,0,0,0,0,0,0,0,0,0,0,0,0,0,0,0,0,0,0,0,0,0,0,0,0,0,0,0,0,0,0,0],"id":6,"left_children":[1,3,5,7,9,11,13,15,17,19,21,23,25,27,29,31,33,35,37,39,41,43,45,47,-1,-1,49,51,53,55,57,-1,-1,59,61,63,65,67,-1,69,71,73,75,77,79,81,83,85,87,-1,-1,-1,89,-1,91,93,95,97,99,-1,-1,-1,-1,-1,-1,-1,-1,-1,-1,-1,-1,-1,-1,-1,-1,-1,-1,-1,-1,-1,-1,-1,-1,-1,-1,-1,-1,-1,-1,-1,-1,-1,-1,-1,-1,-1,-1,-1,-1,-1,-1],"loss_changes":[1.861466E6,4.435662E5,1.2406505E6,5.8327375E4,7.352055E5,8.162556E4,1.1568495E6,6.11525E3,1.1181472E5,4.1885078E5,2.1305828E5,2.2636172E4,4.81153E4,6.7141025E5,2.6866225E5,2.3676562E2,5.76225E3,1.7649562E4,3.0687602E4,2.5379436E5,1.9277006E5,5.801872E4,1.7586678E5,2.8094906E4,0E0,0E0,8.86702E3,1.0659025E5,4.27637E5,8.495478E4,7.449065E5,0E0,0E0,4.3212266E3,3.2780938E3,2.7053438E3,2.2935938E2,5.308996E3,0E0,5.6134875E4,7.678839E4,3.440461E4,7.123931E4,7.7958625E4,6.2172812E3,5.970311E4,1.60893E5,1.048457E3,9.04983E3,0E0,0E0,0E0,1.2745625E3,0E0,3.689025E4,4.8707445E4,1.9733867E3,1.6951425E5,1.4039619E5,0E0,0E0,0E0,0E0,0E0,0E0,0E0,0E0,0E0,0E0,0E0,0E0,0E0,0E0,0E0,0E0,0E0,0E0,0E0,0E0,0E0,0E0,0E0,0E0,0E0,0E0,0E0,0E0,0E0,0E0,0E0,0E0,0E0,0E0,0E0,0E0,0E0,0E0,0E0,0E0,0E0,0E0],"parents":[2147483647,0,0,1,1,2,2,3,3,4,4,5,5,6,6,7,7,8,8,9,9,10,10,11,11,12,12,13,13,14,14,15,15,16,16,17,17,18,18,19,19,20,20,21,21,22,22,23,23,26,26,27,27,28,28,29,29,30,30,33,33,34,34,35,35,36,36,37,37,39,39,40,40,41,41,42,42,43,43,44,44,45,45,46,46,47,47,48,48,52,52,54,54,55,55,56,56,57,57,58,58],"right_children":[2,4,6,8,10,12,14,16,18,20,22,24,26,28,30,32,34,36,38,40,42,44,46,48,-1,-1,50,52,54,56,58,-1,-1,60,62,64,66,68,-1,70,72,74,76,78,80,82,84,86,88,-1,-1,-1,90,-1,92,94,96,98,100,-1,-1,-1,-1,-1,-1,-1,-1,-1,-1,-1,-1,-1,-1,-1,-1,-1,-1,-1,-1,-1,-1,-1,-1,-1,-1,-1,-1,-1,-1,-1,-1,-1,-1,-1,-1,-1,-1,-1,-1,-1,-1],"split_conditions":[2.8E2,4E0,4E0,3E0,6E0,3E0,6E0,1E0,7E0,7E0,9E0,2E0,8E0,5E0,9E0,2.5E2,3E0,4E0,1.2E1,3E0,5E0,8E0,7E0,1E0,-1.4729234E0,-8.0277866E-1,9E0,8E0,8E0,8E0,1E1,-1.6506432E0,-1.4128077E0,2E0,6E0,3E0,5E0,1.1E1,-6.7291737E-1,5E0,5E0,1.1E1,1.1E1,7E0,7E0,1.5E1,1.1E1,8E0,9E0,2.7050844E-1,1.010259E0,1.2522689E0,9E0,4.0967326E0,9E0,9E0,8E0,9E0,1.1E1,-1.372372E0,-8.482817E-1,-1.5269797E0,-1.2873086E0,-8.001052E-1,-1.1558422E0,-1.4266337E0,-1.5695415E0,7.733344E-1,1.8658242E-1,1.3518275E0,3.388043E0,-1.0642315E0,5.8625776E-1,3.0150762E0,1.3256075E0,6.926329E0,3.881253E0,-1.4350705E0,-1.5997784E-1,-1.9040343E0,-1.4140142E0,-4.024975E-1,-1.1765546E0,1.507127E0,-9.135583E-2,-1.1010103E0,-1.5249146E0,2.136561E-1,-7.7349156E-1,3.9382958E0,4.53548E0,9.876283E0,1.2780207E1,1.505308E0,-3.206823E-1,-1.2315077E0,-7.6766056E-1,6.965484E0,2.8664005E0,3.0337865E0,1.0395497E0],"split_indices":[2,0,0,0,0,0,0,0,1,1,0,0,1,0,0,2,1,1,1,1,0,0,1,0,0,0,1,1,1,0,0,0,0,0,1,1,1,1,0,0,0,1,1,0,1,0,0,1,1,0,0,0,1,0,1,1,1,1,0,0,0,0,0,0,0,0,0,0,0,0,0,0,0,0,0,0,0,0,0,0,0,0,0,0,0,0,0,0,0,0,0,0,0,0,0,0,0,0,0,0,0],"split_type":[0,0,0,0,0,0,0,0,0,0,0,0,0,0,0,0,0,0,0,0,0,0,0,0,0,0,0,0,0,0,0,0,0,0,0,0,0,0,0,0,0,0,0,0,0,0,0,0,0,0,0,0,0,0,0,0,0,0,0,0,0,0,0,0,0,0,0,0,0,0,0,0,0,0,0,0,0,0,0,0,0,0,0,0,0,0,0,0,0,0,0,0,0,0,0,0,0,0,0,0,0],"sum_hessian":[2.9385E4,2.1944E4,7.441E3,6.946E3,1.4998E4,2.361E3,5.08E3,3.997E3,2.949E3,2.623E3,1.2375E4,1.364E3,9.97E2,8.85E2,4.195E3,8.67E2,3.13E3,1.983E3,9.66E2,1.733E3,8.9E2,3.158E3,9.217E3,7.18E2,6.46E2,3.47E2,6.5E2,5.25E2,3.6E2,1.074E3,3.121E3,7.68E2,9.9E1,6.73E2,2.457E3,9.73E2,1.01E3,6.21E2,3.45E2,5.64E2,1.169E3,5.37E2,3.53E2,1.937E3,1.221E3,6.13E3,3.087E3,3.04E2,4.14E2,3.14E2,3.36E2,1.81E2,3.44E2,1.26E2,2.34E2,6.52E2,4.22E2,4.71E2,2.65E3,2.66E2,4.07E2,1.069E3,1.388E3,6.37E2,3.36E2,3.39E2,6.71E2,3.33E2,2.88E2,3.35E2,2.29E2,6.97E2,4.72E2,1.85E2,3.52E2,1.19E2,2.34E2,1.065E3,8.72E2,8.15E2,4.06E2,4.878E3,1.252E3,8.8E2,2.207E3,1.04E2,2E2,2.75E2,1.39E2,1.67E2,1.77E2,1.18E2,1.16E2,4.32E2,2.2E2,1.45E2,2.77E2,3.21E2,1.5E2,4.19E2,2.231E3],"tree_param":{"num_deleted":"0","num_feature":"5","num_nodes":"101","size_leaf_vector":"1"}},{"base_weights":[2.9670575E-1,-4.1838813E0,1.338239E1,-1.5936093E-1,-9.13901E0,-4.7443376E0,2.1798412E1,-1.1661866E1,2.399864E0,-1.3206878E1,-7.219055E0,-9.499945E0,1.6306845E0,5.373616E1,1.4992052E1,-1.4710404E1,-1.0797744E1,1.0594475E1,-1.2835664E0,-1.1638399E1,-1.37221365E1,-8.7112875E0,-2.4846501E0,-5.6958995E0,-1.3638971E0,1.0431656E0,-2.8897407E0,3.1620321E1,8.627623E1,1.6225487E0,1.9505808E1,-1.2874793E0,-1.5102684E0,-9.780327E0,-1.1457778E1,3.4384115E0,4.1139935E1,-8.583581E0,2.9870622E0,-1.4619112E0,-1.0340602E0,-1.4308475E0,-1.2468354E1,-4.7200823E0,-1.072915E1,-1.5651987E0,-8.609771E0,-1.1956649E1,-1.1973431E0,1.5428482E-1,-7.0712954E-1,4.1695484E1,1.2170441E0,1.11570946E2,3.8194187E0,8.369512E0,-8.823044E0,5.4434784E1,1.3282592E1,-1.2313112E0,-8.1290877E-1,-1.0613085E0,-1.1981456E0,-2.2574489E-1,1.3880152E0,3.1485405E0,5.636143E0,-9.954319E-1,-3.2327574E-1,2.8330877E0,-1.7147957E-1,-9.841906E-1,-1.3557413E0,4.928785E-1,-6.746282E-1,-1.0179191E0,-1.445091E0,-2.7782473E-1,1.2491853E0,-7.147785E-1,-9.7202617E-1,-1.2747594E0,-1.0468243E0,-6.9455105E-1,1.8390432E-1,4.439376E0,3.8778126E0,1.2655425E1,9.552417E0,2.39279E-2,1.8152541E0,-5.30827E-1,-1.0580301E0,6.415826E0,3.594282E0,1.777769E0,4.7338805E-1],"categories":[],"categories_nodes":[],"categories_segments":[],"categories_sizes":[],"default_left":[0,0,0,0,0,0,0,0,0,0,0,0,0,0,0,0,0,0,0,0,0,0,0,0,0,0,0,0,0,0,0,0,0,0,0,0,0,0,0,0,0,0,0,0,0,0,0,0,0,0,0,0,0,0,0,0,0,0,0,0,0,0,0,0,0,0,0,0,0,0,0,0,0,0,0,0,0,0,0,0,0,0,0,0,0,0,0,0,0,0,0,0,0,0,0,0,0],"id":7,"left_children":[1,3,5,7,9,11,13,15,17,19,21,23,25,27,29,31,33,35,37,39,41,43,45,47,-1,-1,49,51,53,55,57,-1,-1,59,61,63,65,67,69,-1,-1,-1,71,73,75,77,79,81,83,-1,-1,85,-1,87,-1,89,91,93,95,-1,-1,-1,-1,-1,-1,-1,-1,-1,-1,-1,-1,-1,-1,-1,-1,-1,-1,-1,-1,-1,-1,-1,-1,-1,-1,-1,-1,-1,-1,-1,-1,-1,-1,-1,-1,-1,-1],"loss_changes":[1.7269896E6,4.3756622E5,1.1462486E6,3.5648662E5,7.67095E4,7.226114E4,1.1145702E6,5.6471875E3,2.9901903E5,2.387625E3,4.7192594E4,2.141429E4,4.057017E4,6.456775E5,2.5529512E5,1.5407031E2,1.043625E3,6.713525E5,2.1311122E5,2.8893672E3,1.5616562E3,4.087025E4,9.014221E3,2.0066855E4,0E0,0E0,1.2503576E4,1.04919375E5,4.3844325E5,7.541272E4,6.868201E5,0E0,0E0,2.7605469E3,3.32E2,1.4812331E5,8.3901E4,1.8472969E4,5.1399866E5,0E0,0E0,0E0,2.0461562E3,3.342555E4,6.7588438E3,2.382209E4,2.698379E2,2.17375E2,7.2734937E3,0E0,0E0,1.0651875E3,0E0,4.513425E4,0E0,5.169555E4,2.537912E3,8.364125E4,1.0313159E5,0E0,0E0,0E0,0E0,0E0,0E0,0E0,0E0,0E0,0E0,0E0,0E0,0E0,0E0,0E0,0E0,0E0,0E0,0E0,0E0,0E0,0E0,0E0,0E0,0E0,0E0,0E0,0E0,0E0,0E0,0E0,0E0,0E0,0E0,0E0,0E0,0E0,0E0],"parents":[2147483647,0,0,1,1,2,2,3,3,4,4,5,5,6,6,7,7,8,8,9,9,10,10,11,11,12,12,13,13,14,14,15,15,16,16,17,17,18,18,19,19,20,20,21,21,22,22,23,23,26,26,27,27,28,28,29,29,30,30,33,33,34,34,35,35,36,36,37,37,38,38,42,42,43,43,44,44,45,45,46,46,47,47,48,48,51,51,53,53,55,55,56,56,57,57,58,58],"right_children":[2,4,6,8,10,12,14,16,18,20,22,24,26,28,30,32,34,36,38,40,42,44,46,48,-1,-1,50,52,54,56,58,-1,-1,60,62,64,66,68,70,-1,-1,-1,72,74,76,78,80,82,84,-1,-1,86,-1,88,-1,90,92,94,96,-1,-1,-1,-1,-1,-1,-1,-1,-1,-1,-1,-1,-1,-1,-1,-1,-1,-1,-1,-1,-1,-1,-1,-1,-1,-1,-1,-1,-1,-1,-1,-1,-1,-1,-1,-1,-1,-1],"split_conditions":[2.8E2,2.8E1,4E0,3E0,4E0,3E0,6E0,1E0,6E0,5E1,2E2,2E0,2.9E2,5E0,9E0,6E1,8E1,5E0,1E1,2E0,2E2,5E1,1.5E1,1E0,-1.3638971E0,1.0431656E0,3E2,3E2,3E2,8E0,1E1,-1.2874793E0,-1.5102684E0,2E0,2E0,4E0,1.2E2,1.5E2,1.1E1,-1.4619112E0,-1.0340602E0,-1.4308475E0,2E0,6E0,1.5E1,1.4E1,1.6E1,3E2,2.9E2,1.5428482E-1,-7.0712954E-1,2.9E2,1.2170441E0,2.9E2,3.8194187E0,7E0,2.9E2,3E2,3E2,-1.2313112E0,-8.1290877E-1,-1.0613085E0,-1.1981456E0,-2.2574489E-1,1.3880152E0,3.1485405E0,5.636143E0,-9.954319E-1,-3.2327574E-1,2.8330877E0,-1.7147957E-1,-9.841906E-1,-1.3557413E0,4.928785E-1,-6.746282E-1,-1.0179191E0,-1.445091E0,-2.7782473E-1,1.2491853E0,-7.147785E-1,-9.7202617E-1,-1.2747594E0,-1.0468243E0,-6.9455105E-1,1.8390432E-1,4.439376E0,3.8778126E0,1.2655425E1,9.552417E0,2.39279E-2,1.8152541E0,-5.30827E-1,-1.0580301E0,6.415826E0,3.594282E0,1.777769E0,4.7338805E-1],"split_indices":[2,3,0,0,0,0,0,0,0,2,2,0,2,0,0,2,2,0,0,0,2,2,0,0,0,0,2,2,2,0,0,0,0,0,0,0,2,2,0,0,0,0,0,0,0,0,0,2,2,0,0,2,0,2,0,0,2,2,2,0,0,0,0,0,0,0,0,0,0,0,0,0,0,0,0,0,0,0,0,0,0,0,0,0,0,0,0,0,0,0,0,0,0,0,0,0,0],"split_type":[0,0,0,0,0,0,0,0,0,0,0,0,0,0,0,0,0,0,0,0,0,0,0,0,0,0,0,0,0,0,0,0,0,0,0,0,0,0,0,0,0,0,0,0,0,0,0,0,0,0,0,0,0,0,0,0,0,0,0,0,0,0,0,0,0,0,0,0,0,0,0,0,0,0,0,0,0,0,0,0,0,0,0,0,0,0,0,0,0,0,0,0,0,0,0,0,0],"sum_hessian":[2.9453E4,2.1941E4,7.512E3,1.2108E4,9.833E3,2.382E3,5.13E3,2.203E3,9.905E3,3.151E3,6.682E3,1.364E3,1.018E3,9E2,4.23E3,4.83E2,1.72E3,3.071E3,6.834E3,7.85E2,2.366E3,5.08E3,1.602E3,7.12E2,6.52E2,3.45E2,6.73E2,5.37E2,3.63E2,1.068E3,3.162E3,9.1E1,3.92E2,6.83E2,1.037E3,2.489E3,5.82E2,2.522E3,4.312E3,2.35E2,5.5E2,1.605E3,7.61E2,1.707E3,3.373E3,1.394E3,2.08E2,2.97E2,4.15E2,3.27E2,3.46E2,3.53E2,1.84E2,2.37E2,1.26E2,6.49E2,4.19E2,4.77E2,2.685E3,2.67E2,4.16E2,4.05E2,6.32E2,1.611E3,8.78E2,3.58E2,2.24E2,2.007E3,5.15E2,6.74E2,3.638E3,2.26E2,5.35E2,2.96E2,1.411E3,2.942E3,4.31E2,1.284E3,1.1E2,9.3E1,1.15E2,1.89E2,1.08E2,1.43E2,2.72E2,1.76E2,1.77E2,1.19E2,1.18E2,3.55E2,2.94E2,1.41E2,2.78E2,3.11E2,1.66E2,1.759E3,9.26E2],"tree_param":{"num_deleted":"0","num_feature":"5","num_nodes":"97","size_leaf_vector":"1"}},{"base_weights":[-1.3815956E-1,-3.883123E0,1.0894549E1,-6.449548E0,1.2251284E0,-4.882134E0,1.8313068E1,-1.08115425E1,-4.4057474E0,-1.0950885E1,3.8807404E0,-9.050409E0,8.138406E-1,4.793449E1,1.2039503E1,-8.118362E0,-1.2119107E1,2.9585032E0,-5.9450517E0,-1.3295854E0,-1.0275776E1,1.2810673E1,-5.7793703E-2,-5.9486604E0,-1.2381436E1,-5.6601393E-1,4.2555876E0,2.9006348E1,7.608572E1,-2.1962953E0,1.6865822E1,-1.1720814E1,-6.595588E0,-1.1065042E1,-1.2472787E1,1.2071694E1,-6.0009646E0,-1.0764417E1,-4.2804966E0,-9.608445E0,-1.067093E1,6.413353E0,3.988597E1,-9.200072E0,3.06769E0,-1.0944153E1,-2.4625528E0,-1.1821141E0,-1.3443732E0,1.5505745E-1,6.859379E-1,1.2830245E0,3.7522361E0,3.3335063E0,9.851058E1,1.525508E0,-8.002397E0,4.894185E1,1.1179854E1,-1.2507391E0,-1.1131171E0,-6.2633926E-1,-6.9419855E-1,-1.3072221E0,-1.0146856E0,-1.3104737E0,-1.1128026E0,4.5725486E-1,2.309046E0,-1.0366464E0,7.04323E-2,-7.248555E-1,-1.6290302E0,3.7328895E-2,-6.1147887E-1,-7.441738E-1,-1.3412713E0,-1.2578392E0,-7.2950983E-1,1.4301097E-1,1.5736254E0,6.418241E0,2.8178968E0,-7.565641E-1,-1.175361E0,1.2333019E0,-6.348359E-2,-1.0052813E0,-1.2572826E0,-9.038477E-3,-7.206248E-1,8.329422E0,1.1393245E1,4.09461E-1,-3.7404728E-1,-1.010479E0,-6.8237567E-1,2.9982686E0,5.935491E0,2.428705E0,8.739177E-1],"categories":[],"categories_nodes":[],"categories_segments":[],"categories_sizes":[],"default_left":[0,0,0,0,0,0,0,0,0,0,0,0,0,0,0,0,0,0,0,0,0,0,0,0,0,0,0,0,0,0,0,0,0,0,0,0,0,0,0,0,0,0,0,0,0,0,0,0,0,0,0,0,0,0,0,0,0,0,0,0,0,0,0,0,0,0,0,0,0,0,0,0,0,0,0,0,0,0,0,0,0,0,0,0,0,0,0,0,0,0,0,0,0,0,0,0,0,0,0,0,0],"id":8,"left_children":[1,3,5,7,9,11,13,15,17,19,21,23,25,27,29,31,33,35,37,-1,39,41,43,45,47,-1,49,51,53,55,57,59,61,63,65,67,69,71,73,75,77,79,81,83,85,87,89,-1,-1,-1,-1,-1,-1,-1,91,93,95,97,99,-1,-1,-1,-1,-1,-1,-1,-1,-1,-1,-1,-1,-1,-1,-1,-1,-1,-1,-1,-1,-1,-1,-1,-1,-1,-1,-1,-1,-1,-1,-1,-1,-1,-1,-1,-1,-1,-1,-1,-1,-1,-1],"loss_changes":[1.2169132E6,2.8828253E5,8.736731E5,1.3043294E5,2.3783238E5,5.6704195E4,9.428915E5,1.63435625E4,1.1301305E5,1.9483281E3,2.1236231E5,1.41741875E4,2.2528707E4,4.7043112E5,2.87986E5,8.310359E3,1.0329375E3,1.4083592E5,6.609616E4,0E0,1.6828125E2,3.1983503E5,1.1978203E5,1.24420625E4,2.3629688E2,0E0,4.6379355E3,7.280475E4,3.3800525E5,2.2961145E4,5.703125E5,7.087891E1,8.044922E1,1.3380312E3,1.8461562E3,7.05442E4,2.5473879E4,4.0992094E4,5.233043E4,3.131336E3,4.0036172E3,6.9479086E4,9.859819E4,4.368461E3,1.07177016E5,3.0040625E2,4.759301E3,0E0,0E0,0E0,0E0,0E0,0E0,0E0,4.5187E4,8.782005E3,9.5940234E2,9.1206625E4,8.488231E4,0E0,0E0,0E0,0E0,0E0,0E0,0E0,0E0,0E0,0E0,0E0,0E0,0E0,0E0,0E0,0E0,0E0,0E0,0E0,0E0,0E0,0E0,0E0,0E0,0E0,0E0,0E0,0E0,0E0,0E0,0E0,0E0,0E0,0E0,0E0,0E0,0E0,0E0,0E0,0E0,0E0,0E0],"parents":[2147483647,0,0,1,1,2,2,3,3,4,4,5,5,6,6,7,7,8,8,9,9,10,10,11,11,12,12,13,13,14,14,15,15,16,16,17,17,18,18,20,20,21,21,22,22,23,23,24,24,26,26,27,27,28,28,29,29,30,30,31,31,32,32,33,33,34,34,35,35,36,36,37,37,38,38,39,39,40,40,41,41,42,42,43,43,44,44,45,45,46,46,54,54,55,55,56,56,57,57,58,58],"right_children":[2,4,6,8,10,12,14,16,18,20,22,24,26,28,30,32,34,36,38,-1,40,42,44,46,48,-1,50,52,54,56,58,60,62,64,66,68,70,72,74,76,78,80,82,84,86,88,90,-1,-1,-1,-1,-1,-1,-1,92,94,96,98,100,-1,-1,-1,-1,-1,-1,-1,-1,-1,-1,-1,-1,-1,-1,-1,-1,-1,-1,-1,-1,-1,-1,-1,-1,-1,-1,-1,-1,-1,-1,-1,-1,-1,-1,-1,-1,-1,-1,-1,-1,-1,-1],"split_conditions":[2.8E2,7E0,4E0,4E0,3E0,3E0,6E0,3E0,6E0,1E0,6E0,2E0,8E0,5E0,9E0,2E0,4E0,4E0,9E0,-1.3295854E0,2E0,5E0,9E0,1E0,9E0,-5.6601393E-1,9E0,8E0,8E0,8E0,1E1,1E0,2E0,2E0,6E0,5E0,5E0,8E0,1.1E1,1.2E1,1.2E1,4E0,1.1E1,8E0,1.1E1,9E0,9E0,-1.1821141E0,-1.3443732E0,1.5505745E-1,6.859379E-1,1.2830245E0,3.7522361E0,3.3335063E0,9E0,9E0,8E0,8E0,1.1E1,-1.2507391E0,-1.1131171E0,-6.2633926E-1,-6.9419855E-1,-1.3072221E0,-1.0146856E0,-1.3104737E0,-1.1128026E0,4.5725486E-1,2.309046E0,-1.0366464E0,7.04323E-2,-7.248555E-1,-1.6290302E0,3.7328895E-2,-6.1147887E-1,-7.441738E-1,-1.3412713E0,-1.2578392E0,-7.2950983E-1,1.4301097E-1,1.5736254E0,6.418241E0,2.8178968E0,-7.565641E-1,-1.175361E0,1.2333019E0,-6.348359E-2,-1.0052813E0,-1.2572826E0,-9.038477E-3,-7.206248E-1,8.329422E0,1.1393245E1,4.09461E-1,-3.7404728E-1,-1.010479E0,-6.8237567E-1,2.9982686E0,5.935491E0,2.428705E0,8.739177E-1],"split_indices":[2,1,0,0,0,0,0,1,0,0,0,0,1,0,0,0,1,1,0,0,0,0,0,0,1,0,1,1,1,0,0,0,1,0,1,0,0,0,0,1,1,0,1,0,0,1,1,0,0,0,0,0,0,0,1,1,1,1,0,0,0,0,0,0,0,0,0,0,0,0,0,0,0,0,0,0,0,0,0,0,0,0,0,0,0,0,0,0,0,0,0,0,0,0,0,0,0,0,0,0,0],"split_type":[0,0,0,0,0,0,0,0,0,0,0,0,0,0,0,0,0,0,0,0,0,0,0,0,0,0,0,0,0,0,0,0,0,0,0,0,0,0,0,0,0,0,0,0,0,0,0,0,0,0,0,0,0,0,0,0,0,0,0,0,0,0,0,0,0,0,0,0,0,0,0,0,0,0,0,0,0,0,0,0,0,0,0,0,0,0,0,0,0,0,0,0,0,0,0,0,0,0,0,0,0],"sum_hessian":[2.9451E4,2.1988E4,7.463E3,1.4635E4,7.353E3,2.387E3,5.076E3,4.668E3,9.967E3,1.316E3,6.037E3,1.378E3,1.009E3,8.86E2,4.19E3,1.528E3,3.14E3,1.723E3,8.244E3,2.9E2,1.026E3,1.847E3,4.19E3,7.15E2,6.63E2,3.5E2,6.59E2,5.31E2,3.55E2,1.061E3,3.129E3,4.52E2,1.076E3,7.97E2,2.343E3,8.54E2,8.69E2,2.115E3,6.129E3,3.91E2,6.35E2,1.495E3,3.52E2,1.067E3,3.123E3,2.93E2,4.22E2,4.42E2,2.21E2,3.24E2,3.35E2,1.84E2,3.47E2,1.23E2,2.32E2,6.47E2,4.14E2,4.7E2,2.659E3,1.85E2,2.67E2,5.59E2,5.17E2,2.46E2,5.51E2,1.588E3,7.55E2,5.09E2,3.45E2,5.26E2,3.43E2,1.294E3,8.21E2,1.733E3,4.396E3,2.51E2,1.4E2,4.04E2,2.31E2,9.75E2,5.2E2,1.13E2,2.39E2,6.53E2,4.14E2,8.91E2,2.232E3,1.94E2,9.9E1,2.82E2,1.4E2,1.2E2,1.12E2,4.35E2,2.12E2,1.46E2,2.68E2,1.68E2,3.02E2,4.16E2,2.243E3],"tree_param":{"num_deleted":"0","num_feature":"5","num_nodes":"101","size_leaf_vector":"1"}},{"base_weights":[1.1491428E-2,-5.796541E0,5.719021E0,-9.609675E0,-4.007028E0,-9.103303E0,9.0265045E0,-8.196286E0,-1.0987804E1,2.9494038E0,-5.4659257E0,-1.1500627E1,-8.445111E0,1.6808104E1,5.547677E0,-1.1132475E1,-6.9349227E0,-1.1540543E1,-9.808862E0,1.53301935E1,-2.8998926E0,-9.398907E0,-4.115019E0,-1.0034778E0,-1.2232227E0,-5.4132257E0,-1.03614645E1,8.45219E0,5.227677E1,-3.4337435E0,8.643234E0,-1.070441E1,-1.1882463E0,-6.2381783E0,-8.218717E-1,-1.2125448E1,-1.128032E1,-7.2887244E0,-1.0883999E1,1.0087951E1,2.3400724E0,-8.229591E0,5.038577E0,-6.092957E0,-1.4589397E1,-2.733904E0,-9.392252E0,-3.4512842E-1,-8.077547E0,-1.1189565E1,-6.486837E-1,2.2944655E0,1.9753584E1,6.2991955E1,3.1334795E1,1.3641341E-1,-9.165177E0,2.0578783E1,3.9332004E0,-1.1354237E0,-1.020357E0,-5.6226236E-1,-6.897625E-1,-1.3077387E0,-1.1131098E0,-1.0686141E0,-1.1850241E0,-1.1146681E0,-4.4912988E-1,-1.1988342E0,-1.0133404E0,1.3151678E0,6.657097E-1,-5.833175E-1,-9.0218514E-1,1.6434933E0,9.633281E-2,-1.1992228E0,9.542834E-2,-1.143113E0,-1.6121651E0,-3.955569E-1,4.5230976E-1,-5.631085E-1,-1.1235236E0,-2.65304E-1,2.2198701E-1,-6.480495E-1,-1.2285374E0,-1.1443899E0,-9.955187E-1,-7.201386E-1,4.2832738E-1,2.4741194E0,9.87562E-1,2.4850175E0,7.6216087E0,4.0779123E0,2.2739162E0,1.0119444E0,-4.894827E-1,-7.903561E-1,-1.1677983E0,2.9772537E0,1.1434383E0,-2.5749726E-2,1.4119524E0],"categories":[],"categories_nodes":[],"categories_segments":[],"categories_sizes":[],"default_left":[0,0,0,0,0,0,0,0,0,0,0,0,0,0,0,0,0,0,0,0,0,0,0,0,0,0,0,0,0,0,0,0,0,0,0,0,0,0,0,0,0,0,0,0,0,0,0,0,0,0,0,0,0,0,0,0,0,0,0,0,0,0,0,0,0,0,0,0,0,0,0,0,0,0,0,0,0,0,0,0,0,0,0,0,0,0,0,0,0,0,0,0,0,0,0,0,0,0,0,0,0,0,0,0,0,0,0],"id":9,"left_children":[1,3,5,7,9,11,13,15,17,19,21,23,25,27,29,31,33,35,37,39,41,43,45,-1,-1,47,49,51,53,55,57,59,-1,61,-1,63,65,67,69,71,-1,73,75,77,79,81,83,85,87,89,-1,91,93,95,97,99,101,103,105,-1,-1,-1,-1,-1,-1,-1,-1,-1,-1,-1,-1,-1,-1,-1,-1,-1,-1,-1,-1,-1,-1,-1,-1,-1,-1,-1,-1,-1,-1,-1,-1,-1,-1,-1,-1,-1,-1,-1,-1,-1,-1,-1,-1,-1,-1,-1,-1],"loss_changes":[9.761539E5,9.955272E4,7.2819556E5,8.9888125E3,1.0084364E5,4.1789688E3,3.2862794E5,8.459594E3,1.42275E3,1.24822234E5,4.3597734E4,5.0032812E2,1.23195625E4,1.1112535E6,2.3337606E5,9.464844E1,1.3933125E3,1.06609375E2,1.9771719E3,2.3160086E4,4.9586074E4,3.592889E4,4.4543297E4,0E0,0E0,1.1164227E4,4.1114062E3,2.1130216E5,1.5847E5,4.4035727E4,3.508246E5,3.0601562E1,0E0,3.8784375E2,0E0,3.0783594E2,2.5296875E2,2.4321768E3,3.1783984E2,3.4547227E3,0E0,1.2782812E3,2.1858812E4,5.3391926E4,3.7645469E3,4.2998438E4,8.726219E3,1.6989493E3,3.5626875E3,2.229375E2,0E0,3.7178477E4,5.2521062E4,2.36179E5,1.8880625E4,6.670079E4,2.5262812E3,1.4812962E5,1.911169E5,0E0,0E0,0E0,0E0,0E0,0E0,0E0,0E0,0E0,0E0,0E0,0E0,0E0,0E0,0E0,0E0,0E0,0E0,0E0,0E0,0E0,0E0,0E0,0E0,0E0,0E0,0E0,0E0,0E0,0E0,0E0,0E0,0E0,0E0,0E0,0E0,0E0,0E0,0E0,0E0,0E0,0E0,0E0,0E0,0E0,0E0,0E0,0E0],"parents":[2147483647,0,0,1,1,2,2,3,3,4,4,5,5,6,6,7,7,8,8,9,9,10,10,11,11,12,12,13,13,14,14,15,15,16,16,17,17,18,18,19,19,20,20,21,21,22,22,25,25,26,26,27,27,28,28,29,29,30,30,31,31,33,33,35,35,36,36,37,37,38,38,39,39,41,41,42,42,43,43,44,44,45,45,46,46,47,47,48,48,49,49,51,51,52,52,53,53,54,54,55,55,56,56,57,57,58,58],"right_children":[2,4,6,8,10,12,14,16,18,20,22,24,26,28,30,32,34,36,38,40,42,44,46,-1,-1,48,50,52,54,56,58,60,-1,62,-1,64,66,68,70,72,-1,74,76,78,80,82,84,86,88,90,-1,92,94,96,98,100,102,104,106,-1,-1,-1,-1,-1,-1,-1,-1,-1,-1,-1,-1,-1,-1,-1,-1,-1,-1,-1,-1,-1,-1,-1,-1,-1,-1,-1,-1,-1,-1,-1,-1,-1,-1,-1,-1,-1,-1,-1,-1,-1,-1,-1,-1,-1,-1,-1,-1],"split_conditions":[7E0,4E0,3E0,4E0,6E0,1E0,6E0,2E0,6E0,3E0,9E0,9E0,2E0,5E0,9E0,3E0,3E0,2E0,2E0,5E0,5E0,8E0,1.5E1,-1.0034778E0,-1.2232227E0,9E0,1.2E1,4E0,1.1E1,8E0,1.1E1,1E0,-1.1882463E0,2E0,-8.218717E-1,5E0,5E0,1E0,3E0,2E0,2.3400724E0,4E0,4E0,7E0,3E0,1.4E1,3E0,8E0,1.2E1,1.1E1,-6.486837E-1,8E0,1.1E1,8E0,1.2E1,9E0,1.1E1,1E1,1.5E1,-1.1354237E0,-1.020357E0,-5.6226236E-1,-6.897625E-1,-1.3077387E0,-1.1131098E0,-1.0686141E0,-1.1850241E0,-1.1146681E0,-4.4912988E-1,-1.1988342E0,-1.0133404E0,1.3151678E0,6.657097E-1,-5.833175E-1,-9.0218514E-1,1.6434933E0,9.633281E-2,-1.1992228E0,9.542834E-2,-1.143113E0,-1.6121651E0,-3.955569E-1,4.5230976E-1,-5.631085E-1,-1.1235236E0,-2.65304E-1,2.2198701E-1,-6.480495E-1,-1.2285374E0,-1.1443899E0,-9.955187E-1,-7.201386E-1,4.2832738E-1,2.4741194E0,9.87562E-1,2.4850175E0,7.6216087E0,4.0779123E0,2.2739162E0,1.0119444E0,-4.894827E-1,-7.903561E-1,-1.1677983E0,2.9772537E0,1.1434383E0,-2.5749726E-2,1.4119524E0],"split_indices":[1,0,0,1,0,0,0,0,1,1,0,1,0,0,0,1,1,0,0,0,0,0,0,0,0,1,1,0,1,0,0,0,0,1,0,1,1,0,0,1,0,1,1,0,1,0,1,1,1,1,0,1,1,1,1,1,1,1,0,0,0,0,0,0,0,0,0,0,0,0,0,0,0,0,0,0,0,0,0,0,0,0,0,0,0,0,0,0,0,0,0,0,0,0,0,0,0,0,0,0,0,0,0,0,0,0,0],"split_type":[0,0,0,0,0,0,0,0,0,0,0,0,0,0,0,0,0,0,0,0,0,0,0,0,0,0,0,0,0,0,0,0,0,0,0,0,0,0,0,0,0,0,0,0,0,0,0,0,0,0,0,0,0,0,0,0,0,0,0,0,0,0,0,0,0,0,0,0,0,0,0,0,0,0,0,0,0,0,0,0,0,0,0,0,0,0,0,0,0,0,0,0,0,0,0,0,0,0,0,0,0,0,0,0,0,0,0],"sum_hessian":[2.9445E4,1.4594E4,1.4851E4,4.66E3,9.934E3,2.709E3,1.2142E4,2.304E3,2.356E3,1.722E3,8.212E3,5.8E2,2.129E3,3.75E3,8.392E3,6.9E2,1.614E3,1.598E3,7.58E2,5.52E2,1.17E3,2.098E3,6.114E3,1.98E2,3.82E2,8.26E2,1.303E3,3.036E3,7.14E2,2.151E3,6.241E3,4.49E2,2.41E2,1.05E3,5.64E2,4.78E2,1.12E3,2.29E2,5.29E2,3.36E2,2.16E2,7E2,4.7E2,1.283E3,8.15E2,4.847E3,1.267E3,2.85E2,5.41E2,1.072E3,2.31E2,1.966E3,1.07E3,4.71E2,2.43E2,1.326E3,8.25E2,1.765E3,4.476E3,1.86E2,2.63E2,5.48E2,5.02E2,2.38E2,2.4E2,5.58E2,5.62E2,9.5E1,1.34E2,2.08E2,3.21E2,1.76E2,1.6E2,1.76E2,5.24E2,1.23E2,3.47E2,6.98E2,5.85E2,2.69E2,5.46E2,4.149E3,6.98E2,4.18E2,8.49E2,1.5E2,1.35E2,3.94E2,1.47E2,8.82E2,1.9E2,3.4E2,1.626E3,7.1E2,3.6E2,1.22E2,3.49E2,1.14E2,1.29E2,4.44E2,8.82E2,5.52E2,2.73E2,8.79E2,8.86E2,3.172E3,1.304E3],"tree_param":{"num_deleted":"0","num_feature":"5","num_nodes":"107","size_leaf_vector":"1"}},{"base_weights":[-1.714737E-1,-3.2525795E0,8.899338E0,-3.007066E-1,-6.873585E0,3.0129835E-1,1.20432E1,-2.508429E0,3.1180663E0,-7.821247E0,-3.9008018E-1,1.5245403E0,9.01443E-1,-1.9681057E0,-3.4915516E-1,4.1840535E-1,1.9592571E-1,-4.923873E-1,-9.277401E-1,-2.0382667E-1,-1.8901786E-1],"categories":[],"categories_nodes":[],"categories_segments":[],"categories_sizes":[],"default_left":[0,0,0,0,0,0,0,0,0,0,0,0,0,0,0,0,0,0,0,0,0],"id":10,"left_children":[1,3,5,7,9,-1,11,13,15,17,-1,-1,-1,19,-1,-1,-1,-1,-1,-1,-1],"loss_changes":[8.2086556E5,2.3433806E5,1.3777706E5,9.1176516E4,2.7707594E4,0E0,4.6940188E4,3.892168E3,5.847008E3,3.1449312E4,0E0,0E0,0E0,2.205664E1,0E0,0E0,0E0,0E0,0E0,0E0,0E0],"parents":[2147483647,0,0,1,1,2,2,3,3,4,4,6,6,7,7,8,8,9,9,13,13],"right_children":[2,4,6,8,10,-1,12,14,16,18,-1,-1,-1,20,-1,-1,-1,-1,-1,-1,-1],"split_conditions":[2.8E2,2.8E1,8E0,1.2E2,6E0,3.0129835E-1,9E0,3E0,1.1E1,4E0,-3.9008018E-1,1.5245403E0,9.01443E-1,2E0,-3.4915516E-1,4.1840535E-1,1.9592571E-1,-4.923873E-1,-9.277401E-1,-2.0382667E-1,-1.8901786E-1],"split_indices":[2,3,1,2,1,0,1,1,1,1,0,0,0,1,0,0,0,0,0,0,0],"split_type":[0,0,0,0,0,0,0,0,0,0,0,0,0,0,0,0,0,0,0,0,0],"sum_hessian":[2.9369E4,2.1923E4,7.446E3,1.2078E4,9.845E3,2.593E3,4.853E3,7.339E3,4.739E3,7.464E3,2.381E3,2.357E3,2.496E3,4.738E3,2.601E3,2.467E3,2.272E3,2.498E3,4.966E3,2.48E3,2.258E3],"tree_param":{"num_deleted":"0","num_feature":"5","num_nodes":"21","size_leaf_vector":"1"}},{"base_weights":[-2.9580083E-1,-2.882098E0,7.3224387E0,-7.188137E0,-9.006122E-1,-4.7442713E0,1.30425825E1,-8.905843E0,-4.8718967E0,8.908977E0,-3.0076373E0,-8.252358E0,6.625731E-2,2.9720165E1,9.468257E0,-1.0405531E1,-8.488006E0,-7.404734E0,1.52565E-1,3.2487247E0,2.0098925E1,-8.123431E0,-1.2565134E0,-5.5560026E0,-1.117181E1,-2.247785E0,4.721693E-1,1.9407154E1,4.5091988E1,8.057097E-1,1.2436576E1,-1.0094465E1,-1.1010556E0,-6.9105086E0,-8.921166E0,-5.392271E0,-9.403495E0,3.7275507E0,-6.288918E-1,1.4593099E1,-2.2309256E0,1.314852E1,3.0674335E1,-5.6959515E0,-1.186879E1,3.5587041E0,-3.156319E0,-9.419227E0,-2.880285E0,-1.0437454E0,-1.1534408E0,-4.3919513E-1,9.523481E-3,7.3408407E-1,2.586997E0,2.9878805E0,5.33624E1,5.8216977E0,-6.917722E0,2.7414957E1,6.5030174E0,-1.0996269E0,-9.885994E-1,-9.1474E-1,-5.492431E-1,-8.4203285E-1,-9.2348003E-1,-4.7292167E-1,-6.679939E-1,-8.177711E-1,-1.004092E0,5.5144745E-1,1.6432948E-1,8.4730446E-1,2.387023E0,-7.024292E-1,4.908742E-1,2.4302568E0,7.5505227E-1,3.8426728E0,1.586558E0,-1.0460404E0,1.8573558E-2,-1.1408958E0,-1.551427E0,-4.044043E-1,1.2152367E0,-1.0230469E0,-1.2454338E-1,-7.235736E-1,-1.062347E0,-1.5160698E-1,-5.7057685E-1,5.9088306E0,4.722584E0,-9.8640576E-2,1.410711E0,-8.304721E-1,-4.1241723E-1,1.2747267E0,3.5344026E0,-6.541343E-1,9.95158E-1],"categories":[],"categories_nodes":[],"categories_segments":[],"categories_sizes":[],"default_left":[0,0,0,0,0,0,0,0,0,0,0,0,0,0,0,0,0,0,0,0,0,0,0,0,0,0,0,0,0,0,0,0,0,0,0,0,0,0,0,0,0,0,0,0,0,0,0,0,0,0,0,0,0,0,0,0,0,0,0,0,0,0,0,0,0,0,0,0,0,0,0,0,0,0,0,0,0,0,0,0,0,0,0,0,0,0,0,0,0,0,0,0,0,0,0,0,0,0,0,0,0,0,0],"id":11,"left_children":[1,3,5,7,9,11,13,15,17,19,21,23,25,27,29,31,33,35,37,39,41,43,45,47,49,51,-1,53,55,57,59,61,-1,63,65,67,69,71,-1,73,75,77,79,81,83,85,87,89,91,-1,-1,-1,-1,-1,-1,-1,93,95,97,99,101,-1,-1,-1,-1,-1,-1,-1,-1,-1,-1,-1,-1,-1,-1,-1,-1,-1,-1,-1,-1,-1,-1,-1,-1,-1,-1,-1,-1,-1,-1,-1,-1,-1,-1,-1,-1,-1,-1,-1,-1,-1,-1],"loss_changes":[5.7877794E5,1.8710808E5,5.1394044E5,2.7452844E4,3.1047594E5,4.041797E4,3.0081444E5,2.3975E3,3.7479633E4,1.6816022E5,1.10760266E5,1.0840484E4,1.090199E4,1.4037488E5,1.0698266E5,5.0710938E1,2.0620781E3,7.8252188E3,2.2775314E4,1.0975059E5,6.5161688E4,2.8598781E4,8.429154E4,7.4361094E3,5.6421875E1,3.396523E3,0E0,4.153064E4,4.3323062E4,4.1221574E4,2.7524566E5,3.3203125E-1,0E0,2.0877441E3,3.0473438E2,8.034199E2,6.843828E2,2.3596602E3,0E0,3.2444266E4,4.079412E4,3.353428E4,3.9915906E4,5.366603E4,1.8999375E3,1.7037866E5,8.929993E4,6.9881836E2,1.6411047E3,0E0,0E0,0E0,0E0,0E0,0E0,0E0,5.291125E3,3.639704E4,1.5892305E3,1.0177806E5,9.99752E4,0E0,0E0,0E0,0E0,0E0,0E0,0E0,0E0,0E0,0E0,0E0,0E0,0E0,0E0,0E0,0E0,0E0,0E0,0E0,0E0,0E0,0E0,0E0,0E0,0E0,0E0,0E0,0E0,0E0,0E0,0E0,0E0,0E0,0E0,0E0,0E0,0E0,0E0,0E0,0E0,0E0,0E0],"parents":[2147483647,0,0,1,1,2,2,3,3,4,4,5,5,6,6,7,7,8,8,9,9,10,10,11,11,12,12,13,13,14,14,15,15,16,16,17,17,18,18,19,19,20,20,21,21,22,22,23,23,24,24,25,25,27,27,28,28,29,29,30,30,31,31,33,33,34,34,35,35,36,36,37,37,39,39,40,40,41,41,42,42,43,43,44,44,45,45,46,46,47,47,48,48,56,56,57,57,58,58,59,59,60,60],"right_children":[2,4,6,8,10,12,14,16,18,20,22,24,26,28,30,32,34,36,38,40,42,44,46,48,50,52,-1,54,56,58,60,62,-1,64,66,68,70,72,-1,74,76,78,80,82,84,86,88,90,92,-1,-1,-1,-1,-1,-1,-1,94,96,98,100,102,-1,-1,-1,-1,-1,-1,-1,-1,-1,-1,-1,-1,-1,-1,-1,-1,-1,-1,-1,-1,-1,-1,-1,-1,-1,-1,-1,-1,-1,-1,-1,-1,-1,-1,-1,-1,-1,-1,-1,-1,-1,-1],"split_conditions":[2.8E2,4E0,4E0,3E0,6E0,3E0,6E0,1E0,7E0,7E0,9E0,2E0,9E0,5E0,9E0,7E0,3E0,4E0,1.2E1,3E0,5E0,8E0,1.1E1,1E0,8E0,8E0,4.721693E-1,8E0,8E0,8E0,1.1E1,2E0,-1.1010556E0,2E0,2E0,3E0,5E0,1.1E1,-6.288918E-1,5E0,5E0,1.1E1,1.2E1,7E0,2.5E2,1E1,1.2E1,8E0,9E0,-1.0437454E0,-1.1534408E0,-4.3919513E-1,9.523481E-3,7.3408407E-1,2.586997E0,2.9878805E0,9E0,7E0,9E0,8E0,1.2E1,-1.0996269E0,-9.885994E-1,-9.1474E-1,-5.492431E-1,-8.4203285E-1,-9.2348003E-1,-4.7292167E-1,-6.679939E-1,-8.177711E-1,-1.004092E0,5.5144745E-1,1.6432948E-1,8.4730446E-1,2.387023E0,-7.024292E-1,4.908742E-1,2.4302568E0,7.5505227E-1,3.8426728E0,1.586558E0,-1.0460404E0,1.8573558E-2,-1.1408958E0,-1.551427E0,-4.044043E-1,1.2152367E0,-1.0230469E0,-1.2454338E-1,-7.235736E-1,-1.062347E0,-1.5160698E-1,-5.7057685E-1,5.9088306E0,4.722584E0,-9.8640576E-2,1.410711E0,-8.304721E-1,-4.1241723E-1,1.2747267E0,3.5344026E0,-6.541343E-1,9.95158E-1],"split_indices":[2,0,0,0,0,0,0,0,1,1,0,0,1,0,0,1,1,1,1,1,0,0,0,0,1,1,0,1,1,0,0,1,0,0,0,1,1,1,0,0,0,1,1,0,2,0,0,1,1,0,0,0,0,0,0,0,1,0,1,1,0,0,0,0,0,0,0,0,0,0,0,0,0,0,0,0,0,0,0,0,0,0,0,0,0,0,0,0,0,0,0,0,0,0,0,0,0,0,0,0,0,0,0],"split_type":[0,0,0,0,0,0,0,0,0,0,0,0,0,0,0,0,0,0,0,0,0,0,0,0,0,0,0,0,0,0,0,0,0,0,0,0,0,0,0,0,0,0,0,0,0,0,0,0,0,0,0,0,0,0,0,0,0,0,0,0,0,0,0,0,0,0,0,0,0,0,0,0,0,0,0,0,0,0,0,0,0,0,0,0,0,0,0,0,0,0,0,0,0,0,0,0,0,0,0,0,0,0,0],"sum_hessian":[2.9373E4,2.1929E4,7.444E3,6.91E3,1.5019E4,2.394E3,5.05E3,3.966E3,2.944E3,2.655E3,1.2364E4,1.384E3,1.01E3,8.9E2,4.16E3,8.59E2,3.107E3,1.957E3,9.87E2,1.764E3,8.91E2,3.152E3,9.212E3,7.21E2,6.63E2,6.75E2,3.35E2,5.34E2,3.56E2,1.062E3,3.098E3,5.79E2,2.8E2,6.73E2,2.434E3,9.77E2,9.8E2,6.35E2,3.52E2,5.74E2,1.19E3,5.39E2,3.52E2,1.914E3,1.238E3,2.606E3,6.606E3,2.94E2,4.27E2,2.29E2,4.34E2,3.52E2,3.23E2,1.87E2,3.47E2,1.27E2,2.29E2,6.44E2,4.18E2,8.78E2,2.22E3,9.9E1,4.8E2,2.59E2,4.14E2,9.48E2,1.486E3,6.48E2,3.29E2,3.4E2,6.4E2,3.41E2,2.94E2,3.47E2,2.27E2,7.12E2,4.78E2,1.79E2,3.6E2,2.3E2,1.22E2,1.057E3,8.57E2,1.103E3,1.35E2,1.383E3,1.223E3,1.404E3,5.202E3,1.07E2,1.87E2,2.89E2,1.38E2,1.14E2,1.15E2,3.54E2,2.9E2,2.78E2,1.4E2,3.09E2,5.69E2,4.64E2,1.756E3],"tree_param":{"num_deleted":"0","num_feature":"5","num_nodes":"103","size_leaf_vector":"1"}},{"base_weights":[1.4156666E-1,-2.4900541E0,7.8713174E0,2.1678795E-1,-5.7939067E0,-3.7982042E0,1.3288585E1,-7.4490786E0,1.9146899E0,-7.753366E0,-4.525786E0,-6.9201226E0,3.5072017E-1,3.254012E1,9.283052E0,-9.498673E0,-6.8892355E0,7.1773415E0,-4.6224776E-1,-6.486676E0,-8.186793E0,4.6128917E0,-5.297112E0,-4.3752217E0,-9.657673E-1,-2.5083501E0,6.118576E-1,1.9198915E1,5.217841E1,-2.3544408E-1,1.2504169E1,-9.158927E-1,-1.0596454E0,-5.950961E0,-8.376708E0,2.6845572E0,2.6790365E1,-5.997937E0,2.7936924E0,-8.880066E-1,-5.7056932E0,-8.521854E0,-7.470348E0,1.3925874E0,1.5042787E0,-6.310325E0,-2.1174154E0,-8.762688E0,-9.7137445E-1,-4.9632683E-1,1.4073628E-2,5.149489E-1,2.6514124E1,2.2887156E0,6.741724E1,3.659275E0,-6.464533E0,3.875666E1,7.820651E0,-8.6121064E-1,-4.331583E-1,-5.5185616E-1,-1.0167924E0,-1.132661E-1,9.7880584E-1,1.8369435E0,3.9268665E0,-7.4493617E-1,-2.2900298E-2,2.2492692E0,-8.47585E-2,-6.064565E-1,-4.5464602E-1,-8.863042E-1,-8.2114834E-1,-5.621235E-1,-8.0707407E-1,-2.5441736E-1,9.65753E-1,-5.536465E-1,-1.0654252E0,1.4914577E-1,-4.1928917E-1,-6.566768E-1,-9.888064E-1,5.7150867E-2,-4.0382367E-1,2.830714E0,2.4546106E0,5.7752004E0,7.6037393E0,8.0441475E-1,-4.7209412E-1,-7.8778416E-1,-3.632079E-1,5.2427726E0,1.2745818E0,9.9621135E-1,-5.8438295E-1],"categories":[],"categories_nodes":[],"categories_segments":[],"categories_sizes":[],"default_left":[0,0,0,0,0,0,0,0,0,0,0,0,0,0,0,0,0,0,0,0,0,0,0,0,0,0,0,0,0,0,0,0,0,0,0,0,0,0,0,0,0,0,0,0,0,0,0,0,0,0,0,0,0,0,0,0,0,0,0,0,0,0,0,0,0,0,0,0,0,0,0,0,0,0,0,0,0,0,0,0,0,0,0,0,0,0,0,0,0,0,0,0,0,0,0,0,0,0,0],"id":12,"left_children":[1,3,5,7,9,11,13,15,17,19,21,23,25,27,29,31,33,35,37,39,41,43,45,47,-1,49,-1,51,53,55,57,-1,-1,59,61,63,65,67,69,-1,71,73,75,-1,77,79,81,83,85,-1,-1,-1,87,-1,89,91,93,95,97,-1,-1,-1,-1,-1,-1,-1,-1,-1,-1,-1,-1,-1,-1,-1,-1,-1,-1,-1,-1,-1,-1,-1,-1,-1,-1,-1,-1,-1,-1,-1,-1,-1,-1,-1,-1,-1,-1,-1,-1],"loss_changes":[5.987594E5,1.9638075E5,4.7266012E5,1.5712908E5,2.4537438E4,3.0713043E4,3.9343506E5,2.4463438E3,1.2362973E5,2.0792656E3,4.2360133E4,9.383816E3,1.6819375E4,2.2929481E5,1.2963419E5,7.712109E1,2.3548594E3,2.7088812E5,1.2274131E5,1.8091836E3,6.301094E2,1.3527864E4,1.7831703E4,1.0490274E4,0E0,4.4359424E3,0E0,5.3820062E4,1.5691631E5,2.5982447E4,3.881087E5,0E0,0E0,4.53066E3,3.3432734E3,6.788147E4,5.9488875E4,2.1115438E4,3.0759522E5,0E0,2.8568555E2,1.3498438E2,9.86E2,0E0,1.1643403E4,1.4059703E4,1.0043027E4,6.937363E2,1.8808364E3,0E0,0E0,0E0,5.225625E2,0E0,1.502125E4,2.4253707E4,1.6206758E3,1.6930669E5,7.85388E4,0E0,0E0,0E0,0E0,0E0,0E0,0E0,0E0,0E0,0E0,0E0,0E0,0E0,0E0,0E0,0E0,0E0,0E0,0E0,0E0,0E0,0E0,0E0,0E0,0E0,0E0,0E0,0E0,0E0,0E0,0E0,0E0,0E0,0E0,0E0,0E0,0E0,0E0,0E0,0E0],"parents":[2147483647,0,0,1,1,2,2,3,3,4,4,5,5,6,6,7,7,8,8,9,9,10,10,11,11,12,12,13,13,14,14,15,15,16,16,17,17,18,18,19,19,20,20,21,21,22,22,23,23,25,25,27,27,28,28,29,29,30,30,33,33,34,34,35,35,36,36,37,37,38,38,40,40,41,41,42,42,44,44,45,45,46,46,47,47,48,48,52,52,54,54,55,55,56,56,57,57,58,58],"right_children":[2,4,6,8,10,12,14,16,18,20,22,24,26,28,30,32,34,36,38,40,42,44,46,48,-1,50,-1,52,54,56,58,-1,-1,60,62,64,66,68,70,-1,72,74,76,-1,78,80,82,84,86,-1,-1,-1,88,-1,90,92,94,96,98,-1,-1,-1,-1,-1,-1,-1,-1,-1,-1,-1,-1,-1,-1,-1,-1,-1,-1,-1,-1,-1,-1,-1,-1,-1,-1,-1,-1,-1,-1,-1,-1,-1,-1,-1,-1,-1,-1,-1,-1],"split_conditions":[2.8E2,2.8E1,4E0,3E0,5E0,3E0,6E0,1E0,6E0,4E0,6E0,2E0,9E0,5E0,9E0,1.2E1,1.2E2,5E0,1E1,2E0,6E0,4E0,6E0,1E0,-9.657673E-1,8E0,6.118576E-1,8E0,8E0,8E0,1E1,-9.158927E-1,-1.0596454E0,2E0,2E0,4E0,1.2E2,1.5E2,1.1E1,-8.880066E-1,4E0,3E0,2E0,1.3925874E0,6E0,1.5E1,1E1,8E0,9E0,-4.9632683E-1,1.4073628E-2,5.149489E-1,9E0,2.2887156E0,9E0,9E0,9E0,9E0,1.6E1,-8.6121064E-1,-4.331583E-1,-5.5185616E-1,-1.0167924E0,-1.132661E-1,9.7880584E-1,1.8369435E0,3.9268665E0,-7.4493617E-1,-2.2900298E-2,2.2492692E0,-8.47585E-2,-6.064565E-1,-4.5464602E-1,-8.863042E-1,-8.2114834E-1,-5.621235E-1,-8.0707407E-1,-2.5441736E-1,9.65753E-1,-5.536465E-1,-1.0654252E0,1.4914577E-1,-4.1928917E-1,-6.566768E-1,-9.888064E-1,5.7150867E-2,-4.0382367E-1,2.830714E0,2.4546106E0,5.7752004E0,7.6037393E0,8.0441475E-1,-4.7209412E-1,-7.8778416E-1,-3.632079E-1,5.2427726E0,1.2745818E0,9.9621135E-1,-5.8438295E-1],"split_indices":[2,3,0,0,0,0,0,0,0,1,0,0,1,0,0,1,2,0,0,0,1,1,1,0,0,1,0,1,1,0,0,0,0,0,0,0,2,2,0,0,0,0,0,0,1,0,0,1,1,0,0,0,1,0,1,1,1,1,0,0,0,0,0,0,0,0,0,0,0,0,0,0,0,0,0,0,0,0,0,0,0,0,0,0,0,0,0,0,0,0,0,0,0,0,0,0,0,0,0],"split_type":[0,0,0,0,0,0,0,0,0,0,0,0,0,0,0,0,0,0,0,0,0,0,0,0,0,0,0,0,0,0,0,0,0,0,0,0,0,0,0,0,0,0,0,0,0,0,0,0,0,0,0,0,0,0,0,0,0,0,0,0,0,0,0,0,0,0,0,0,0,0,0,0,0,0,0,0,0,0,0,0,0,0,0,0,0,0,0,0,0,0,0,0,0,0,0,0,0,0,0],"sum_hessian":[2.9433E4,2.1958E4,7.475E3,1.207E4,9.888E3,2.37E3,5.105E3,2.188E3,9.882E3,3.883E3,6.005E3,1.352E3,1.018E3,8.78E2,4.227E3,4.66E2,1.722E3,3.074E3,6.808E3,9.94E2,2.889E3,4.67E2,5.538E3,7.02E2,6.5E2,6.81E2,3.37E2,5.24E2,3.54E2,1.069E3,3.158E3,3.63E2,1.03E2,1.059E3,6.63E2,2.502E3,5.72E2,2.521E3,4.287E3,2.42E2,7.52E2,1.961E3,9.28E2,1.16E2,3.51E2,4.199E3,1.339E3,3.06E2,3.96E2,3.53E2,3.28E2,1.8E2,3.44E2,1.22E2,2.32E2,6.58E2,4.11E2,4.77E2,2.681E3,3.99E2,6.6E2,2.57E2,4.06E2,1.628E3,8.74E2,3.43E2,2.29E2,2.014E3,5.07E2,6.68E2,3.619E3,5.71E2,1.81E2,9.21E2,1.04E3,2.3E2,6.98E2,2.35E2,1.16E2,3.566E3,6.33E2,4.89E2,8.5E2,1.06E2,2E2,2.64E2,1.32E2,1.73E2,1.71E2,1.13E2,1.19E2,4.32E2,2.26E2,2.73E2,1.38E2,3.12E2,1.65E2,2.318E3,3.63E2],"tree_param":{"num_deleted":"0","num_feature":"5","num_nodes":"99","size_leaf_vector":"1"}},{"base_weights":[1.0580201E-1,-3.7730577E0,3.9063308E0,-6.647088E0,-2.425548E0,-3.8451142E0,7.4935746E0,-5.1933146E0,-7.3372273E0,3.1337922E0,-3.6203828E0,-6.907986E0,2.340413E-1,2.3315014E1,4.158676E0,-7.9269104E0,-4.0093656E0,-6.646983E0,-7.5656605E0,1.235369E1,-1.3848965E0,-6.7409763E0,-2.5466971E0,-5.8995624E0,-8.006988E0,-6.0287684E-1,1.6075554E0,1.2404614E1,3.9328053E1,-2.9157517E0,6.5390697E0,-8.368015E0,-7.5870104E0,-3.4570272E0,-4.614761E0,-8.31812E-1,-5.908361E-1,-7.748284E0,-7.1826406E0,7.624386E0,1.9455624E1,-5.4335885E0,4.6186066E0,-3.8333788E0,-1.1223428E1,-1.4586185E0,-6.6029754E0,-8.32816E0,-4.195053E0,-8.821447E0,-4.223372E-1,3.6653304E0,-5.857806E-1,1.4813495E1,3.990068E-2,4.858922E1,2.0523733E1,2.3675683E0,-5.5291944E0,1.6532433E1,2.6085663E0,-8.9009047E-1,-7.6673675E-1,-7.0747733E-1,-8.068468E-1,-4.3638286E-1,-2.838396E-1,-3.6063823E-1,-5.264908E-1,-8.222832E-1,-7.541911E-1,-5.574842E-1,-7.8635305E-1,1.1757472E0,3.1260952E-1,2.1012661E0,1.7534392E0,-3.6420602E-1,-6.051244E-1,1.3926413E0,1.4681703E-1,-8.6729825E-1,1.8138611E-1,-8.4632397E-1,-1.2501972E0,-2.6759005E-1,5.87577E-1,-3.4230718E-1,-8.1722844E-1,-5.71062E-1,-8.9038986E-1,-2.7487857E-2,-6.222969E-1,-9.102215E-1,-7.5217426E-1,-6.1007477E-2,5.09989E-1,6.423352E-1,1.6955919E0,2.342419E0,5.779741E0,2.2501342E0,1.8524147E0,8.336374E-1,-6.832107E-1,-4.2747316E-1,-7.451636E-1,2.4964116E0,8.110617E-1,-9.209916E-2,1.1022431E0],"categories":[],"categories_nodes":[],"categories_segments":[],"categories_sizes":[],"default_left":[0,0,0,0,0,0,0,0,0,0,0,0,0,0,0,0,0,0,0,0,0,0,0,0,0,0,0,0,0,0,0,0,0,0,0,0,0,0,0,0,0,0,0,0,0,0,0,0,0,0,0,0,0,0,0,0,0,0,0,0,0,0,0,0,0,0,0,0,0,0,0,0,0,0,0,0,0,0,0,0,0,0,0,0,0,0,0,0,0,0,0,0,0,0,0,0,0,0,0,0,0,0,0,0,0,0,0,0,0,0,0],"id":13,"left_children":[1,3,5,7,9,11,13,15,17,19,21,23,25,27,29,31,33,35,37,39,41,43,45,47,49,-1,51,53,55,57,59,61,63,65,67,-1,-1,69,71,73,75,77,79,81,83,85,87,89,91,93,-1,95,-1,97,-1,99,101,103,105,107,109,-1,-1,-1,-1,-1,-1,-1,-1,-1,-1,-1,-1,-1,-1,-1,-1,-1,-1,-1,-1,-1,-1,-1,-1,-1,-1,-1,-1,-1,-1,-1,-1,-1,-1,-1,-1,-1,-1,-1,-1,-1,-1,-1,-1,-1,-1,-1,-1,-1,-1],"loss_changes":[4.3361288E5,5.636E4,4.1314738E5,4.62325E3,6.5851734E4,5.8735586E4,5.3581575E5,4.8196406E3,4.460625E2,7.3091984E4,2.7319852E4,2.9284453E3,1.7360041E4,3.0839688E5,1.4130598E5,4.28125E0,3.3448047E2,9.2721484E2,1.09296875E2,1.9231484E4,2.8657957E4,2.7170227E4,2.6789441E4,5.7770156E3,3.9133594E3,0E0,2.5445639E4,3.0446922E4,1.23694125E5,2.9188662E4,2.465501E5,1.5742188E0,8.518555E0,2.9727246E2,3.068418E2,0E0,0E0,9.3109375E1,8.0458203E2,6.4331973E3,3.1958594E2,7.5696875E2,1.390829E4,3.467068E4,2.7915156E3,4.2772E4,6.379504E3,8.2021094E2,6.5727617E3,3.1614844E2,0E0,7.964166E3,0E0,1.5655375E4,0E0,1.09642125E5,5.243281E2,3.849471E4,3.3781992E3,1.25627375E5,1.3385553E5,0E0,0E0,0E0,0E0,0E0,0E0,0E0,0E0,0E0,0E0,0E0,0E0,0E0,0E0,0E0,0E0,0E0,0E0,0E0,0E0,0E0,0E0,0E0,0E0,0E0,0E0,0E0,0E0,0E0,0E0,0E0,0E0,0E0,0E0,0E0,0E0,0E0,0E0,0E0,0E0,0E0,0E0,0E0,0E0,0E0,0E0,0E0,0E0,0E0,0E0],"parents":[2147483647,0,0,1,1,2,2,3,3,4,4,5,5,6,6,7,7,8,8,9,9,10,10,11,11,12,12,13,13,14,14,15,15,16,16,17,17,18,18,19,19,20,20,21,21,22,22,23,23,24,24,26,26,27,27,28,28,29,29,30,30,31,31,32,32,33,33,34,34,37,37,38,38,39,39,40,40,41,41,42,42,43,43,44,44,45,45,46,46,47,47,48,48,49,49,51,51,53,53,55,55,56,56,57,57,58,58,59,59,60,60],"right_children":[2,4,6,8,10,12,14,16,18,20,22,24,26,28,30,32,34,36,38,40,42,44,46,48,50,-1,52,54,56,58,60,62,64,66,68,-1,-1,70,72,74,76,78,80,82,84,86,88,90,92,94,-1,96,-1,98,-1,100,102,104,106,108,110,-1,-1,-1,-1,-1,-1,-1,-1,-1,-1,-1,-1,-1,-1,-1,-1,-1,-1,-1,-1,-1,-1,-1,-1,-1,-1,-1,-1,-1,-1,-1,-1,-1,-1,-1,-1,-1,-1,-1,-1,-1,-1,-1,-1,-1,-1,-1,-1,-1,-1],"split_conditions":[7E0,4E0,4E0,3E0,6E0,3E0,6E0,2E0,4E0,3E0,9E0,2E0,8E0,5E0,9E0,1E0,2E0,2E0,6E0,5E0,5E0,8E0,1.5E1,1E0,1.2E1,-6.0287684E-1,1.2E1,1.2E1,1.1E1,9E0,1.1E1,2E0,2E0,3E0,3E0,-8.31812E-1,-5.908361E-1,2E0,2E0,2E0,2E0,4E0,4E0,7E0,3E0,1.4E1,3E0,8E0,9E0,1.1E1,-4.223372E-1,9E0,-5.857806E-1,8E0,3.990068E-2,8E0,1.2E1,8E0,8E0,1E1,1.5E1,-8.9009047E-1,-7.6673675E-1,-7.0747733E-1,-8.068468E-1,-4.3638286E-1,-2.838396E-1,-3.6063823E-1,-5.264908E-1,-8.222832E-1,-7.541911E-1,-5.574842E-1,-7.8635305E-1,1.1757472E0,3.1260952E-1,2.1012661E0,1.7534392E0,-3.6420602E-1,-6.051244E-1,1.3926413E0,1.4681703E-1,-8.6729825E-1,1.8138611E-1,-8.4632397E-1,-1.2501972E0,-2.6759005E-1,5.87577E-1,-3.4230718E-1,-8.1722844E-1,-5.71062E-1,-8.9038986E-1,-2.7487857E-2,-6.222969E-1,-9.102215E-1,-7.5217426E-1,-6.1007477E-2,5.09989E-1,6.423352E-1,1.6955919E0,2.342419E0,5.779741E0,2.2501342E0,1.8524147E0,8.336374E-1,-6.832107E-1,-4.2747316E-1,-7.451636E-1,2.4964116E0,8.110617E-1,-9.209916E-2,1.1022431E0],"split_indices":[1,0,0,1,0,0,0,0,1,1,0,0,1,0,0,0,1,0,1,0,0,0,0,0,1,0,1,1,1,1,0,1,1,0,0,0,0,0,0,1,1,1,1,0,1,0,1,1,1,1,0,1,0,1,0,1,1,0,0,1,0,0,0,0,0,0,0,0,0,0,0,0,0,0,0,0,0,0,0,0,0,0,0,0,0,0,0,0,0,0,0,0,0,0,0,0,0,0,0,0,0,0,0,0,0,0,0,0,0,0,0],"split_type":[0,0,0,0,0,0,0,0,0,0,0,0,0,0,0,0,0,0,0,0,0,0,0,0,0,0,0,0,0,0,0,0,0,0,0,0,0,0,0,0,0,0,0,0,0,0,0,0,0,0,0,0,0,0,0,0,0,0,0,0,0,0,0,0,0,0,0,0,0,0,0,0,0,0,0,0,0,0,0,0,0,0,0,0,0,0,0,0,0,0,0,0,0,0,0,0,0,0,0,0,0,0,0,0,0,0,0,0,0,0,0],"sum_hessian":[2.9412E4,1.4556E4,1.4856E4,4.645E3,9.911E3,4.7E3,1.0156E4,1.498E3,3.147E3,1.753E3,8.158E3,2.684E3,2.016E3,1.767E3,8.389E3,4.51E2,1.047E3,7.9E2,2.357E3,5.76E2,1.177E3,2.087E3,6.071E3,1.403E3,1.281E3,3.62E2,1.654E3,1.052E3,7.15E2,2.112E3,6.277E3,1.86E2,2.65E2,5.51E2,4.96E2,2.39E2,5.51E2,1.583E3,7.74E2,3.47E2,2.29E2,7.03E2,4.74E2,1.267E3,8.2E2,4.788E3,1.283E3,5.77E2,8.26E2,1.053E3,2.28E2,1.297E3,3.57E2,8.76E2,1.76E2,4.78E2,2.37E2,6.99E2,1.413E3,1.771E3,4.506E3,9.9E1,8.7E1,1.36E2,1.29E2,2.21E2,3.3E2,1.97E2,2.99E2,4.68E2,1.115E3,2.33E2,5.41E2,1.8E2,1.67E2,1.21E2,1.08E2,1.82E2,5.21E2,1.19E2,3.55E2,6.82E2,5.85E2,2.62E2,5.58E2,4.107E3,6.81E2,4.25E2,8.58E2,1.06E2,4.71E2,2.82E2,5.44E2,8.61E2,1.92E2,3.26E2,9.71E2,1.79E2,6.97E2,1.29E2,3.49E2,1.14E2,1.23E2,4.24E2,2.75E2,8.57E2,5.56E2,8.84E2,8.87E2,3.175E3,1.331E3],"tree_param":{"num_deleted":"0","num_feature":"5","num_nodes":"111","size_leaf_vector":"1"}},{"base_weights":[-1.6956712E-1,-2.1244364E0,5.5588474E0,1.3454318E-2,-4.758955E0,2.1936302E-1,7.3303256E0,-1.6952536E0,2.6499696E0,-5.4798083E0,-2.4884032E-1,9.567744E-1,5.1803666E-1,-9.598245E-1,-3.042035E-1,3.6020887E-1,1.5748824E-1,-2.9935148E-1,-6.7193514E-1,-7.303415E-2,-1.2099031E-1],"categories":[],"categories_nodes":[],"categories_segments":[],"categories_sizes":[],"default_left":[0,0,0,0,0,0,0,0,0,0,0,0,0,0,0,0,0,0,0,0,0],"id":14,"left_children":[1,3,5,7,9,-1,11,13,15,17,-1,-1,-1,19,-1,-1,-1,-1,-1,-1,-1],"loss_changes":[3.290851E5,1.2340404E5,4.4557406E4,5.4497387E4,1.6050906E4,0E0,2.3511562E4,7.267074E3,4.8636484E3,2.2936719E4,0E0,0E0,0E0,2.7165576E2,0E0,0E0,0E0,0E0,0E0,0E0,0E0],"parents":[2147483647,0,0,1,1,2,2,3,3,4,4,6,6,7,7,8,8,9,9,13,13],"right_children":[2,4,6,8,10,-1,12,14,16,18,-1,-1,-1,20,-1,-1,-1,-1,-1,-1,-1],"split_conditions":[2.8E2,2.8E1,8E0,1.2E2,6E0,2.1936302E-1,9E0,3E0,1.1E1,4E0,-2.4884032E-1,9.567744E-1,5.1803666E-1,2E0,-3.042035E-1,3.6020887E-1,1.5748824E-1,-2.9935148E-1,-6.7193514E-1,-7.303415E-2,-1.2099031E-1],"split_indices":[2,3,1,2,1,0,1,1,1,1,0,0,0,1,0,0,0,0,0,0,0],"split_type":[0,0,0,0,0,0,0,0,0,0,0,0,0,0,0,0,0,0,0,0,0],"sum_hessian":[2.9385E4,2.1909E4,7.476E3,1.2095E4,9.814E3,2.579E3,4.897E3,7.339E3,4.756E3,7.448E3,2.366E3,2.398E3,2.499E3,4.748E3,2.591E3,2.521E3,2.235E3,2.479E3,4.969E3,2.478E3,2.27E3],"tree_param":{"num_deleted":"0","num_feature":"5","num_nodes":"21","size_leaf_vector":"1"}},{"base_weights":[1.8633935E-1,-3.1375644E0,3.447878E0,-1.6604311E0,-4.597164E0,4.6581845E0,-2.216786E-1,-1.1620554E0,-2.624254E-1,-5.850394E0,-1.9451942E-1,5.8094277E0,2.862196E0,-1.09488286E-1,-1.2362774E-1,-5.6960136E-1,-6.0047185E-1,1.9286351E-1,7.8919916E0,3.6854777E-1,1.9561256E-1,9.89377E-1,5.961405E-1],"categories":[],"categories_nodes":[],"categories_segments":[],"categories_sizes":[],"default_left":[0,0,0,0,0,0,0,0,0,0,0,0,0,0,0,0,0,0,0,0,0,0,0],"id":15,"left_children":[1,3,5,7,9,11,-1,13,-1,15,-1,17,19,-1,-1,-1,-1,-1,21,-1,-1,-1,-1],"loss_changes":[3.1945294E5,3.1457375E4,1.0197931E5,3.4818594E3,2.4383328E4,2.5322031E4,0E0,2.2498047E1,0E0,8.453125E1,0E0,6.0333094E4,3.5651484E3,0E0,0E0,0E0,0E0,0E0,1.8719125E4,0E0,0E0,0E0,0E0],"parents":[2147483647,0,0,1,1,2,2,3,3,4,4,5,5,7,7,9,9,11,11,12,12,18,18],"right_children":[2,4,6,8,10,12,-1,14,-1,16,-1,18,20,-1,-1,-1,-1,-1,22,-1,-1,-1,-1],"split_conditions":[7E0,4E0,1.2E1,3E0,6E0,1E1,-2.216786E-1,2E0,-2.624254E-1,5E0,-1.9451942E-1,8E0,1.1E1,-1.09488286E-1,-1.2362774E-1,-5.6960136E-1,-6.0047185E-1,1.9286351E-1,9E0,3.6854777E-1,1.9561256E-1,9.89377E-1,5.961405E-1],"split_indices":[1,1,1,1,1,1,0,1,0,1,0,1,1,0,0,0,0,0,1,0,0,0,0],"split_type":[0,0,0,0,0,0,0,0,0,0,0,0,0,0,0,0,0,0,0,0,0,0,0],"sum_hessian":[2.9465E4,1.4593E4,1.4872E4,7.254E3,7.339E3,1.2254E4,2.618E3,4.783E3,2.471E3,4.983E3,2.356E3,7.466E3,4.788E3,2.519E3,2.264E3,2.51E3,2.473E3,2.608E3,4.858E3,2.507E3,2.281E3,2.383E3,2.475E3],"tree_param":{"num_deleted":"0","num_feature":"5","num_nodes":"23","size_leaf_vector":"1"}},{"base_weights":[-1.5532878E-1,-2.6307101E0,3.3340914E0,-5.102336E0,-1.4749019E0,-7.1066E0,5.6606364E0,-6.521136E0,-4.8992634E0,3.8176725E0,-2.5908415E0,-7.8174586E0,-6.007194E0,1.0568929E1,2.394034E0,-7.5989E-1,-6.319539E0,-3.9398642E0,-5.2650743E0,1.42422905E1,2.0750911E0,-4.3085017E0,-2.1884069E-1,-6.0333047E0,-9.7153246E-1,-7.306227E0,-4.54071E0,1.4323595E1,4.122998E0,7.8647823E0,-6.4224705E-2,-6.114525E0,-6.6844183E-1,-5.8664126E0,-3.4558887E0,-4.184509E0,-5.5337124E0,1.0547827E0,1.9406751E0,-1.2430794E0,7.0778236E0,-3.0621622E0,-9.461643E0,6.751835E0,-2.39949E0,-9.4914097E-1,-3.5726128E0,-6.6931887E0,-7.789132E-1,-6.455717E-1,-2.902183E-1,8.443176E0,3.3820087E1,-1.491232E0,1.7879383E1,3.9721208E0,2.4504858E1,-5.32732E0,3.0468202E0,-6.446185E-1,-5.0342333E-1,-5.3883505E-1,-6.3250905E-1,-4.104069E-1,-3.0467555E-1,-6.877387E-1,-1.734241E-2,-4.5063075E-1,-5.797935E-1,-3.0166814E-1,7.178647E-1,1.3003119E0,4.2621323E-1,-5.887743E-1,3.445844E-2,-6.6765964E-1,-1.1435556E0,4.6286216E-1,1.9028167E0,-9.3327826E-1,-3.5512354E-3,-1.8576513E-1,-4.3985087E-1,-7.698906E-1,-5.945644E-1,1.6039804E0,-5.3951615E-1,4.4558682E0,2.3539956E0,8.1102794E-1,-1.3761226E0,4.3606815E0,-4.9800596E-1,9.7655934E-1,9.666952E-2,2.9377797E0,1.5381597E0,-3.4969905E-1,-8.782245E-1,2.2808487E0,-6.407731E-2],"categories":[],"categories_nodes":[],"categories_segments":[],"categories_sizes":[],"default_left":[0,0,0,0,0,0,0,0,0,0,0,0,0,0,0,0,0,0,0,0,0,0,0,0,0,0,0,0,0,0,0,0,0,0,0,0,0,0,0,0,0,0,0,0,0,0,0,0,0,0,0,0,0,0,0,0,0,0,0,0,0,0,0,0,0,0,0,0,0,0,0,0,0,0,0,0,0,0,0,0,0,0,0,0,0,0,0,0,0,0,0,0,0,0,0,0,0,0,0,0,0],"id":16,"left_children":[1,3,5,7,9,11,13,15,17,19,21,23,25,27,29,-1,31,33,35,37,39,41,43,45,-1,47,49,51,53,55,57,59,-1,61,63,65,67,-1,-1,69,71,73,75,77,79,-1,81,83,-1,-1,-1,85,87,89,91,93,95,97,99,-1,-1,-1,-1,-1,-1,-1,-1,-1,-1,-1,-1,-1,-1,-1,-1,-1,-1,-1,-1,-1,-1,-1,-1,-1,-1,-1,-1,-1,-1,-1,-1,-1,-1,-1,-1,-1,-1,-1,-1,-1,-1],"loss_changes":[2.5465522E5,4.9262406E4,2.9723738E5,1.5512656E3,6.9425375E4,1.6958359E3,1.6040525E5,1.0081055E2,1.6677109E3,3.7155727E4,3.9548207E4,4.5159844E3,1.6432344E3,9.670184E4,8.0812625E4,0E0,2.7402344E0,1.2216875E3,9.8702344E2,5.3857188E3,2.914166E4,3.6130062E4,6.2004254E4,5.9141133E3,0E0,8.552539E1,1.286584E3,2.893141E5,1.1378868E5,1.2057699E5,6.791807E4,1.05490234E2,0E0,2.4245117E1,2.7045508E2,7.5273564E3,7.296328E2,0E0,0E0,1.5794905E4,1.1623242E4,4.365611E4,5.9488438E3,2.5247367E4,5.0923867E4,0E0,5.725449E2,1.1361035E2,0E0,0E0,0E0,2.0423872E5,6.3531688E4,1.2345919E5,2.513422E5,2.6299867E4,1.5241453E4,9.714035E3,1.899945E5,0E0,0E0,0E0,0E0,0E0,0E0,0E0,0E0,0E0,0E0,0E0,0E0,0E0,0E0,0E0,0E0,0E0,0E0,0E0,0E0,0E0,0E0,0E0,0E0,0E0,0E0,0E0,0E0,0E0,0E0,0E0,0E0,0E0,0E0,0E0,0E0,0E0,0E0,0E0,0E0,0E0,0E0],"parents":[2147483647,0,0,1,1,2,2,3,3,4,4,5,5,6,6,7,7,8,8,9,9,10,10,11,11,12,12,13,13,14,14,16,16,17,17,18,18,19,19,20,20,21,21,22,22,23,23,25,25,26,26,27,27,28,28,29,29,30,30,31,31,33,33,34,34,35,35,36,36,39,39,40,40,41,41,42,42,43,43,44,44,46,46,47,47,51,51,52,52,53,53,54,54,55,55,56,56,57,57,58,58],"right_children":[2,4,6,8,10,12,14,16,18,20,22,24,26,28,30,-1,32,34,36,38,40,42,44,46,-1,48,50,52,54,56,58,60,-1,62,64,66,68,-1,-1,70,72,74,76,78,80,-1,82,84,-1,-1,-1,86,88,90,92,94,96,98,100,-1,-1,-1,-1,-1,-1,-1,-1,-1,-1,-1,-1,-1,-1,-1,-1,-1,-1,-1,-1,-1,-1,-1,-1,-1,-1,-1,-1,-1,-1,-1,-1,-1,-1,-1,-1,-1,-1,-1,-1,-1,-1],"split_conditions":[8E0,4E0,3E0,1E0,6E0,1.1E1,1E1,2E0,3E0,2E0,1.2E1,2E0,2E0,1.1E1,6E0,-7.5989E-1,6E0,2E0,2E0,5E0,5E0,1.1E1,1.3E1,1E0,-9.7153246E-1,1.2E1,1.2E1,9E0,1.5E1,5E0,1E1,5E0,-6.6844183E-1,2E0,3E0,6E0,4E0,1.0547827E0,1.9406751E0,7E0,4E0,9E0,4E0,7E0,1.4E1,-9.4914097E-1,9E0,1E0,-7.789132E-1,-6.455717E-1,-2.902183E-1,6E0,9E0,1.3E1,1.6E1,1.1E1,1.2E1,1.2E1,1.1E1,-6.446185E-1,-5.0342333E-1,-5.3883505E-1,-6.3250905E-1,-4.104069E-1,-3.0467555E-1,-6.877387E-1,-1.734241E-2,-4.5063075E-1,-5.797935E-1,-3.0166814E-1,7.178647E-1,1.3003119E0,4.2621323E-1,-5.887743E-1,3.445844E-2,-6.6765964E-1,-1.1435556E0,4.6286216E-1,1.9028167E0,-9.3327826E-1,-3.5512354E-3,-1.8576513E-1,-4.3985087E-1,-7.698906E-1,-5.945644E-1,1.6039804E0,-5.3951615E-1,4.4558682E0,2.3539956E0,8.1102794E-1,-1.3761226E0,4.3606815E0,-4.9800596E-1,9.7655934E-1,9.666952E-2,2.9377797E0,1.5381597E0,-3.4969905E-1,-8.782245E-1,2.2808487E0,-6.407731E-2],"split_indices":[1,0,0,0,0,1,1,1,1,1,0,0,0,0,0,0,1,0,0,0,0,0,0,0,0,1,1,0,0,0,0,1,0,1,0,1,1,0,0,1,1,0,1,1,0,0,1,0,0,0,0,0,1,0,0,1,1,1,0,0,0,0,0,0,0,0,0,0,0,0,0,0,0,0,0,0,0,0,0,0,0,0,0,0,0,0,0,0,0,0,0,0,0,0,0,0,0,0,0,0,0],"split_type":[0,0,0,0,0,0,0,0,0,0,0,0,0,0,0,0,0,0,0,0,0,0,0,0,0,0,0,0,0,0,0,0,0,0,0,0,0,0,0,0,0,0,0,0,0,0,0,0,0,0,0,0,0,0,0,0,0,0,0,0,0,0,0,0,0,0,0,0,0,0,0,0,0,0,0,0,0,0,0,0,0,0,0,0,0,0,0,0,0,0,0,0,0,0,0,0,0,0,0,0,0],"sum_hessian":[2.948E4,1.7246E4,1.2234E4,5.494E3,1.1752E4,2.229E3,1.0005E4,6.84E2,4.81E3,2.046E3,9.706E3,1.35E3,8.79E2,3.997E3,6.008E3,1.02E2,5.82E2,1.331E3,3.479E3,2.92E2,1.754E3,5.629E3,4.077E3,6.98E2,6.52E2,4.64E2,4.15E2,2.525E3,1.472E3,1.862E3,4.146E3,3.84E2,1.98E2,2.65E2,1.066E3,6.96E2,2.783E3,1.72E2,1.2E2,1.055E3,6.99E2,4.534E3,1.095E3,9.71E2,3.106E3,2.89E2,4.09E2,2.11E2,2.53E2,1.9E2,2.25E2,1.941E3,5.84E2,1.046E3,4.26E2,1.51E3,3.52E2,1.54E3,2.606E3,2.9E2,9.4E1,1.36E2,1.29E2,4.09E2,6.57E2,4.16E2,2.8E2,5.73E2,2.21E3,8.72E2,1.83E2,2.24E2,4.75E2,2.478E3,2.056E3,4.56E2,6.39E2,8.29E2,1.42E2,7.89E2,2.317E3,1.34E2,2.75E2,8.6E1,1.25E2,1.253E3,6.88E2,2.84E2,3E2,5.87E2,4.59E2,2E2,2.26E2,5.15E2,9.95E2,2.28E2,1.24E2,1.008E3,5.32E2,4.09E2,2.197E3],"tree_param":{"num_deleted":"0","num_feature":"5","num_nodes":"101","size_leaf_vector":"1"}},{"base_weights":[8.193565E-2,-1.4005296E0,4.416382E0,2.6388773E-1,-3.4447145E0,6.03323E-2,6.4398007E0,-9.6586263E-1,2.1801972E0,-4.091505E0,-1.4035688E-1,7.724664E-1,5.198294E-1,-3.5548303E-1,-2.0779161E-1,2.8760594E-1,1.4181684E-1,-2.3309742E-1,-4.9559847E-1,-2.905572E-2,-4.2744223E-2],"categories":[],"categories_nodes":[],"categories_segments":[],"categories_sizes":[],"default_left":[0,0,0,0,0,0,0,0,0,0,0,0,0,0,0,0,0,0,0,0,0],"id":17,"left_children":[1,3,5,7,9,-1,11,13,15,17,-1,-1,-1,19,-1,-1,-1,-1,-1,-1,-1],"loss_changes":[1.8864445E5,7.4431305E4,5.772286E4,2.842013E4,1.2955922E4,0E0,7.7570156E3,4.9855396E3,2.4955996E3,1.1334539E4,0E0,0E0,0E0,2.2039856E1,0E0,0E0,0E0,0E0,0E0,0E0,0E0],"parents":[2147483647,0,0,1,1,2,2,3,3,4,4,6,6,7,7,8,8,9,9,13,13],"right_children":[2,4,6,8,10,-1,12,14,16,18,-1,-1,-1,20,-1,-1,-1,-1,-1,-1,-1],"split_conditions":[2.8E2,2.8E1,8E0,1.2E2,6E0,6.03323E-2,9E0,3E0,1.1E1,4E0,-1.4035688E-1,7.724664E-1,5.198294E-1,2E0,-2.0779161E-1,2.8760594E-1,1.4181684E-1,-2.3309742E-1,-4.9559847E-1,-2.905572E-2,-4.2744223E-2],"split_indices":[2,3,1,2,1,0,1,1,1,1,0,0,0,1,0,0,0,0,0,0,0],"split_type":[0,0,0,0,0,0,0,0,0,0,0,0,0,0,0,0,0,0,0,0,0],"sum_hessian":[2.9356E4,2.1875E4,7.481E3,1.2058E4,9.817E3,2.594E3,4.887E3,7.345E3,4.713E3,7.454E3,2.363E3,2.399E3,2.488E3,4.743E3,2.602E3,2.462E3,2.251E3,2.456E3,4.998E3,2.496E3,2.247E3],"tree_param":{"num_deleted":"0","num_feature":"5","num_nodes":"21","size_leaf_vector":"1"}},{"base_weights":[8.166738E-2,-1.2866901E0,4.1099043E0,8.035626E-2,-2.9626114E0,9.659668E-2,5.802545E0,-1.0711776E0,1.8639072E0,-3.5679164E0,-1.0635473E-1,7.3489165E-1,4.334546E-1,-5.6362915E-1,-1.9896697E-1,2.7370825E-1,8.973605E-2,-1.7084537E-1,-4.484139E-1,-9.23874E-2,-1.6520498E-2],"categories":[],"categories_nodes":[],"categories_segments":[],"categories_sizes":[],"default_left":[0,0,0,0,0,0,0,0,0,0,0,0,0,0,0,0,0,0,0,0,0],"id":18,"left_children":[1,3,5,7,9,-1,11,13,15,17,-1,-1,-1,19,-1,-1,-1,-1,-1,-1,-1],"loss_changes":[1.6223648E5,5.0334875E4,3.9709164E4,2.4855264E4,1.1341898E4,0E0,1.0980281E4,3.4271611E3,4.0046875E3,1.2742695E4,0E0,0E0,0E0,6.7989343E2,0E0,0E0,0E0,0E0,0E0,0E0,0E0],"parents":[2147483647,0,0,1,1,2,2,3,3,4,4,6,6,7,7,8,8,9,9,13,13],"right_children":[2,4,6,8,10,-1,12,14,16,18,-1,-1,-1,20,-1,-1,-1,-1,-1,-1,-1],"split_conditions":[2.8E2,2.8E1,8E0,1.2E2,6E0,9.659668E-2,9E0,3E0,1.1E1,4E0,-1.0635473E-1,7.3489165E-1,4.334546E-1,2E0,-1.9896697E-1,2.7370825E-1,8.973605E-2,-1.7084537E-1,-4.484139E-1,-9.23874E-2,-1.6520498E-2],"split_indices":[2,3,1,2,1,0,1,1,1,1,0,0,0,1,0,0,0,0,0,0,0],"split_type":[0,0,0,0,0,0,0,0,0,0,0,0,0,0,0,0,0,0,0,0,0],"sum_hessian":[2.9431E4,2.1969E4,7.462E3,1.21E4,9.869E3,2.612E3,4.85E3,7.353E3,4.747E3,7.483E3,2.386E3,2.36E3,2.49E3,4.737E3,2.616E3,2.493E3,2.254E3,2.471E3,5.012E3,2.487E3,2.25E3],"tree_param":{"num_deleted":"0","num_feature":"5","num_nodes":"21","size_leaf_vector":"1"}},{"base_weights":[-1.5463346E-1,-4.3977203E0,1.8198318E0,-5.6899376E0,-2.6343153E0,9.868953E0,1.12229705E-1,-4.826247E0,-6.922384E0,-3.7762198E0,-3.6404085E-1,6.286626E0,2.048754E1,-1.0141437E0,5.6356745E0,-5.7272725E0,-4.5749474E0,-7.544906E0,-4.62086E0,-2.8213422E0,-4.082532E0,1.2189009E0,-4.859458E-1,2.2277064E0,1.2378678E1,1.2986891E1,3.1617756E1,-4.722243E0,2.5514364E-1,7.3623796E0,-1.2606748E1,-6.5780383E-1,-5.394229E0,-3.7553463E0,-4.884593E0,-6.209905E0,-8.985732E0,-6.631125E-1,-2.4139896E-1,-2.6424286E-1,-3.0127922E-1,-4.2843843E0,-3.1445858E-1,1.9545685E-1,8.250236E-1,-4.6482876E-1,7.3946495E0,9.795222E0,1.7268747E1,5.2488256E-1,1.7040962E1,2.0046499E0,3.7869637E0,-2.973258E0,-7.493681E0,5.3886986E0,-1.77637E0,5.077977E0,3.5088905E1,-1.564952E0,-9.250849E-1,-4.826524E-1,-6.201036E-1,-5.5360633E-1,-2.641941E-1,-4.344921E-1,-5.2310055E-1,-8.767647E-1,-4.405488E-1,-9.686532E-1,-6.65985E-1,-3.6435553E-1,-4.7259936E-1,6.8001986E-2,9.933614E-2,9.478459E-1,-2.5175437E-1,9.773637E-1,3.0194402E-1,1.7397438E0,2.4459438E-1,1.7944155E0,1.5909725E0,1.4205275E0,1.9638875E0,-6.145587E-1,9.311936E-2,-7.886099E-1,-3.970179E-1,-4.856712E-2,1.2089645E0,-8.230036E-1,-2.926451E-3,1.0276703E0,1.07427314E-1,2.5419312E0,4.5208154E0],"categories":[],"categories_nodes":[],"categories_segments":[],"categories_sizes":[],"default_left":[0,0,0,0,0,0,0,0,0,0,0,0,0,0,0,0,0,0,0,0,0,0,0,0,0,0,0,0,0,0,0,0,0,0,0,0,0,0,0,0,0,0,0,0,0,0,0,0,0,0,0,0,0,0,0,0,0,0,0,0,0,0,0,0,0,0,0,0,0,0,0,0,0,0,0,0,0,0,0,0,0,0,0,0,0,0,0,0,0,0,0,0,0,0,0,0,0],"id":19,"left_children":[1,3,5,7,9,11,13,15,17,19,21,23,25,27,29,31,33,35,37,39,41,43,-1,45,47,49,51,53,55,57,59,-1,61,63,65,67,69,-1,-1,-1,-1,71,-1,-1,73,75,77,79,81,-1,83,-1,-1,85,87,89,91,93,95,-1,-1,-1,-1,-1,-1,-1,-1,-1,-1,-1,-1,-1,-1,-1,-1,-1,-1,-1,-1,-1,-1,-1,-1,-1,-1,-1,-1,-1,-1,-1,-1,-1,-1,-1,-1,-1,-1],"loss_changes":[2.4648369E5,2.1274938E4,2.7596488E5,5.705047E3,1.0246527E4,1.3354112E5,1.0306421E5,6.922578E2,3.1444062E3,7.577344E2,9.427485E3,6.4980094E4,7.3556125E4,6.4764617E4,8.847981E4,1.5945508E2,6.125664E2,3.3007188E3,2.0912793E3,1.4028809E1,3.6309766E2,2.8235498E2,0E0,2.1970762E4,1.3108422E4,1.656839E4,2.4994625E4,1.6986555E4,1.06926516E5,1.6222184E5,2.3365625E3,0E0,1.9908496E2,1.3454785E3,3.1396484E2,4.156621E3,1.2997812E3,0E0,0E0,0E0,0E0,4.451953E2,0E0,0E0,1.4946655E1,2.1230617E4,5.6015234E3,3.8508297E4,4.6789062E1,0E0,2.2846875E3,0E0,0E0,2.6673227E4,1.8449922E3,1.1443653E5,8.282764E4,4.9318504E4,1.7931406E4,0E0,0E0,0E0,0E0,0E0,0E0,0E0,0E0,0E0,0E0,0E0,0E0,0E0,0E0,0E0,0E0,0E0,0E0,0E0,0E0,0E0,0E0,0E0,0E0,0E0,0E0,0E0,0E0,0E0,0E0,0E0,0E0,0E0,0E0,0E0,0E0,0E0,0E0],"parents":[2147483647,0,0,1,1,2,2,3,3,4,4,5,5,6,6,7,7,8,8,9,9,10,10,11,11,12,12,13,13,14,14,15,15,16,16,17,17,18,18,19,19,20,20,21,21,23,23,24,24,25,25,26,26,27,27,28,28,29,29,30,30,32,32,33,33,34,34,35,35,36,36,41,41,44,44,45,45,46,46,47,47,48,48,50,50,53,53,54,54,55,55,56,56,57,57,58,58],"right_children":[2,4,6,8,10,12,14,16,18,20,22,24,26,28,30,32,34,36,38,40,42,44,-1,46,48,50,52,54,56,58,60,-1,62,64,66,68,70,-1,-1,-1,-1,72,-1,-1,74,76,78,80,82,-1,84,-1,-1,86,88,90,92,94,96,-1,-1,-1,-1,-1,-1,-1,-1,-1,-1,-1,-1,-1,-1,-1,-1,-1,-1,-1,-1,-1,-1,-1,-1,-1,-1,-1,-1,-1,-1,-1,-1,-1,-1,-1,-1,-1,-1],"split_conditions":[4E0,3E0,6E0,8E0,9E0,2.8E2,2.9E2,1E0,1.2E1,3E0,1.2E1,5E0,5E0,9E0,1.6E1,3E0,3E0,2E0,2E0,2E0,3E2,1E1,-4.859458E-1,7E0,7E0,8E0,8E0,8E0,1.1E1,1.5E1,8E0,-6.5780383E-1,6E0,2E0,2E0,1E0,1.1E1,-6.631125E-1,-2.4139896E-1,-2.6424286E-1,-3.0127922E-1,5E0,-3.1445858E-1,1.9545685E-1,1.1E1,2E0,1.2E1,4E0,1.2E1,5.2488256E-1,9E0,2.0046499E0,3.7869637E0,7E0,2.8E2,1E1,1.2E1,1E1,8E0,-1.564952E0,-9.250849E-1,-4.826524E-1,-6.201036E-1,-5.5360633E-1,-2.641941E-1,-4.344921E-1,-5.2310055E-1,-8.767647E-1,-4.405488E-1,-9.686532E-1,-6.65985E-1,-3.6435553E-1,-4.7259936E-1,6.8001986E-2,9.933614E-2,9.478459E-1,-2.5175437E-1,9.773637E-1,3.0194402E-1,1.7397438E0,2.4459438E-1,1.7944155E0,1.5909725E0,1.4205275E0,1.9638875E0,-6.145587E-1,9.311936E-2,-7.886099E-1,-3.970179E-1,-4.856712E-2,1.2089645E0,-8.230036E-1,-2.926451E-3,1.0276703E0,1.07427314E-1,2.5419312E0,4.5208154E0],"split_indices":[0,0,0,1,1,2,2,0,1,1,1,0,0,0,0,1,1,0,0,1,2,1,0,1,1,1,1,0,0,0,1,0,1,0,0,0,1,0,0,0,0,1,0,0,1,1,1,1,1,0,1,0,0,0,2,0,0,0,1,0,0,0,0,0,0,0,0,0,0,0,0,0,0,0,0,0,0,0,0,0,0,0,0,0,0,0,0,0,0,0,0,0,0,0,0,0,0],"split_type":[0,0,0,0,0,0,0,0,0,0,0,0,0,0,0,0,0,0,0,0,0,0,0,0,0,0,0,0,0,0,0,0,0,0,0,0,0,0,0,0,0,0,0,0,0,0,0,0,0,0,0,0,0,0,0,0,0,0,0,0,0,0,0,0,0,0,0,0,0,0,0,0,0,0,0,0,0,0,0,0,0,0,0,0,0,0,0,0,0,0,0,0,0,0,0,0,0],"sum_hessian":[2.9419E4,9.342E3,2.0077E4,5.39E3,3.952E3,3.513E3,1.6564E4,3.172E3,2.218E3,2.629E3,1.323E3,2.628E3,8.85E2,1.3759E4,2.805E3,6.87E2,2.485E3,1.744E3,4.74E2,6.41E2,1.988E3,9.79E2,3.44E2,1.578E3,1.05E3,5.3E2,3.55E2,3.508E3,1.0251E4,2.563E3,2.42E2,1.88E2,4.99E2,6.85E2,1.8E3,9.08E2,8.36E2,2.47E2,2.27E2,3.39E2,3.02E2,1.633E3,3.55E2,3.4E2,6.39E2,1.038E3,5.4E2,6.89E2,3.61E2,1.83E2,3.47E2,1.26E2,2.29E2,2.152E3,1.356E3,2.906E3,7.345E3,2.369E3,1.94E2,1.25E2,1.17E2,2.97E2,2.02E2,2.62E2,4.23E2,7.09E2,1.091E3,3.74E2,5.34E2,6.4E2,1.96E2,6.7E2,9.63E2,3.46E2,2.93E2,1.77E2,8.61E2,3.49E2,1.91E2,3.38E2,3.51E2,2.33E2,1.28E2,1.69E2,1.78E2,1.187E3,9.65E2,1.219E3,1.37E2,1.549E3,1.357E3,1.564E3,5.781E3,1.03E3,1.339E3,1.01E2,9.3E1],"tree_param":{"num_deleted":"0","num_feature":"5","num_nodes":"97","size_leaf_vector":"1"}},{"base_weights":[-9.004304E-2,-4.076812E0,1.7561657E0,-5.2626944E0,-2.479241E0,9.429394E0,1.518091E-1,-4.2013187E0,-6.7680955E0,-3.9835234E0,5.346208E-1,3.1608968E0,1.5486558E1,-9.3925935E-1,5.4776225E0,-5.140994E0,-3.9395E0,-7.8506427E0,-5.127338E0,-3.4719126E0,-4.823331E0,2.2851229E0,-4.3232995E-1,1.0127922E1,-2.0440418E-1,9.573117E0,2.4385118E1,-4.224495E0,1.9557446E-1,7.0652394E0,-1.1407628E1,-6.317177E-1,-4.671072E0,-3.6308446E0,-4.135196E0,-1.0206569E1,-7.1813135E0,-5.982818E-1,-4.1431346E0,-3.7009692E0,-3.3163953E0,-4.5245472E-1,-5.4198563E-1,2.832797E0,9.699937E-2,6.009571E0,1.6485687E1,-2.6579487E0,3.3615007E0,1.1408344E1,5.692835E0,2.9768137E1,1.9069502E1,-2.6451695E0,-6.7337556E0,4.4483395E0,-1.5016086E0,4.753426E0,3.486472E1,-1.3243507E0,-9.14206E-1,-4.2785215E-1,-5.236066E-1,-4.8811212E-1,-5.7702553E-2,-3.13171E-1,-6.516499E-1,-1.1004567E0,-8.522709E-1,-4.452179E-1,-8.8837814E-1,-6.122867E-1,-2.3875372E-1,-3.3042946E-1,-4.142441E-1,-3.1019214E-1,-3.743723E-1,1.7244387E-1,3.8825616E-1,7.295953E-1,4.5248318E-1,1.7753781E0,1.4951895E0,-3.0912116E-1,-1.2567958E-1,8.8872117E-1,1.3555025E-1,4.668335E-1,1.379854E0,6.6282386E-1,4.7885105E-1,2.0157182E0,3.4738128E0,2.0315526E0,1.6564349E0,-5.6122863E-1,8.929124E-2,-6.176948E-1,-9.056422E-1,-1.4444743E-1,1.1217471E0,-6.854817E-1,-6.2882314E-3,-2.1526365E-1,7.802748E-1,2.5942323E0,4.4862895E0],"categories":[],"categories_nodes":[],"categories_segments":[],"categories_sizes":[],"default_left":[0,0,0,0,0,0,0,0,0,0,0,0,0,0,0,0,0,0,0,0,0,0,0,0,0,0,0,0,0,0,0,0,0,0,0,0,0,0,0,0,0,0,0,0,0,0,0,0,0,0,0,0,0,0,0,0,0,0,0,0,0,0,0,0,0,0,0,0,0,0,0,0,0,0,0,0,0,0,0,0,0,0,0,0,0,0,0,0,0,0,0,0,0,0,0,0,0,0,0,0,0,0,0,0,0,0,0],"id":20,"left_children":[1,3,5,7,9,11,13,15,17,19,21,23,25,27,29,31,33,35,37,39,41,43,-1,45,47,49,51,53,55,57,59,-1,61,63,65,67,69,-1,71,73,75,-1,-1,77,-1,79,81,83,85,87,89,91,93,95,97,99,101,103,105,-1,-1,-1,-1,-1,-1,-1,-1,-1,-1,-1,-1,-1,-1,-1,-1,-1,-1,-1,-1,-1,-1,-1,-1,-1,-1,-1,-1,-1,-1,-1,-1,-1,-1,-1,-1,-1,-1,-1,-1,-1,-1,-1,-1,-1,-1,-1,-1],"loss_changes":[2.1615288E5,1.7596625E4,2.4709683E5,8.494203E3,1.7964646E4,1.3174256E5,9.64765E4,7.500508E2,3.8744844E3,1.1188281E3,1.1234895E4,4.0024625E4,9.264281E4,5.1375375E4,7.5757625E4,3.457871E2,1.3315234E2,2.0176641E3,7.1530273E2,4.6359375E1,1.5335352E2,6.9662646E2,0E0,1.4458957E4,1.0087904E4,7.4977734E3,1.9576625E4,1.40030625E4,7.39378E4,1.657079E5,8.896387E2,0E0,8.605176E1,3.6625771E3,3.549662E3,2.9723047E2,4.7739766E3,0E0,1.4173335E3,1.0136621E2,7.912207E1,0E0,0E0,7.903125E2,0E0,6.14458E2,1.5855469E2,4.107422E2,5.1977E3,1.1534727E4,2.584082E2,1.5922469E4,7.778594E2,2.281695E4,1.7106797E3,1.1657255E5,5.6392168E4,5.0220996E4,1.6499281E4,0E0,0E0,0E0,0E0,0E0,0E0,0E0,0E0,0E0,0E0,0E0,0E0,0E0,0E0,0E0,0E0,0E0,0E0,0E0,0E0,0E0,0E0,0E0,0E0,0E0,0E0,0E0,0E0,0E0,0E0,0E0,0E0,0E0,0E0,0E0,0E0,0E0,0E0,0E0,0E0,0E0,0E0,0E0,0E0,0E0,0E0,0E0,0E0],"parents":[2147483647,0,0,1,1,2,2,3,3,4,4,5,5,6,6,7,7,8,8,9,9,10,10,11,11,12,12,13,13,14,14,15,15,16,16,17,17,18,18,19,19,20,20,21,21,23,23,24,24,25,25,26,26,27,27,28,28,29,29,30,30,32,32,33,33,34,34,35,35,36,36,38,38,39,39,40,40,43,43,45,45,46,46,47,47,48,48,49,49,50,50,51,51,52,52,53,53,54,54,55,55,56,56,57,57,58,58],"right_children":[2,4,6,8,10,12,14,16,18,20,22,24,26,28,30,32,34,36,38,40,42,44,-1,46,48,50,52,54,56,58,60,-1,62,64,66,68,70,-1,72,74,76,-1,-1,78,-1,80,82,84,86,88,90,92,94,96,98,100,102,104,106,-1,-1,-1,-1,-1,-1,-1,-1,-1,-1,-1,-1,-1,-1,-1,-1,-1,-1,-1,-1,-1,-1,-1,-1,-1,-1,-1,-1,-1,-1,-1,-1,-1,-1,-1,-1,-1,-1,-1,-1,-1,-1,-1,-1,-1,-1,-1,-1],"split_conditions":[4E0,3E0,6E0,8E0,9E0,7E0,8.1E1,1E0,1.1E1,6E0,1.2E1,3E0,5E0,9E0,1.6E1,3E0,2E0,1E0,2E0,3E0,8E0,1.1E1,-4.3232995E-1,5E0,5E0,1.1E1,1E1,8E0,1.1E1,1.5E1,8E0,-6.317177E-1,6E0,6E0,6E0,1E1,2E0,-5.982818E-1,1.2E1,2E0,5E0,-4.5245472E-1,-5.4198563E-1,1E1,9.699937E-2,2E0,2E0,6E0,4E0,8E0,1.2E1,8E0,1.2E1,7E0,3E1,1E1,1.2E1,9E0,8E0,-1.3243507E0,-9.14206E-1,-4.2785215E-1,-5.236066E-1,-4.8811212E-1,-5.7702553E-2,-3.13171E-1,-6.516499E-1,-1.1004567E0,-8.522709E-1,-4.452179E-1,-8.8837814E-1,-6.122867E-1,-2.3875372E-1,-3.3042946E-1,-4.142441E-1,-3.1019214E-1,-3.743723E-1,1.7244387E-1,3.8825616E-1,7.295953E-1,4.5248318E-1,1.7753781E0,1.4951895E0,-3.0912116E-1,-1.2567958E-1,8.8872117E-1,1.3555025E-1,4.668335E-1,1.379854E0,6.6282386E-1,4.7885105E-1,2.0157182E0,3.4738128E0,2.0315526E0,1.6564349E0,-5.6122863E-1,8.929124E-2,-6.176948E-1,-9.056422E-1,-1.4444743E-1,1.1217471E0,-6.854817E-1,-6.2882314E-3,-2.1526365E-1,7.802748E-1,2.5942323E0,4.4862895E0],"split_indices":[0,0,0,1,1,1,4,0,1,1,1,1,0,0,0,1,0,0,0,1,1,1,0,0,0,1,1,0,0,0,1,0,1,1,1,1,0,0,1,1,1,0,0,1,0,1,1,1,1,1,1,1,1,0,3,0,0,0,1,0,0,0,0,0,0,0,0,0,0,0,0,0,0,0,0,0,0,0,0,0,0,0,0,0,0,0,0,0,0,0,0,0,0,0,0,0,0,0,0,0,0,0,0,0,0,0,0],"split_type":[0,0,0,0,0,0,0,0,0,0,0,0,0,0,0,0,0,0,0,0,0,0,0,0,0,0,0,0,0,0,0,0,0,0,0,0,0,0,0,0,0,0,0,0,0,0,0,0,0,0,0,0,0,0,0,0,0,0,0,0,0,0,0,0,0,0,0,0,0,0,0,0,0,0,0,0,0,0,0,0,0,0,0,0,0,0,0,0,0,0,0,0,0,0,0,0,0,0,0,0,0,0,0,0,0,0,0],"sum_hessian":[2.9365E4,9.294E3,2.0071E4,5.333E3,3.961E3,3.47E3,1.6601E4,3.13E3,2.203E3,2.642E3,1.319E3,1.706E3,1.764E3,1.3779E4,2.822E3,6.78E2,2.452E3,1.325E3,8.78E2,1.645E3,9.97E2,9.7E2,3.49E2,5.55E2,1.151E3,1.061E3,7.03E2,3.537E3,1.0242E4,2.58E3,2.42E2,1.9E2,4.88E2,9.59E2,1.493E3,2.9E2,1.035E3,4.67E2,4.11E2,6.56E2,9.89E2,6.7E2,3.27E2,6.84E2,2.86E2,3.38E2,2.17E2,6.82E2,4.69E2,7.19E2,3.42E2,3.47E2,3.56E2,2.172E3,1.365E3,2.921E3,7.321E3,2.383E3,1.97E2,1.31E2,1.11E2,2.93E2,1.95E2,6.8E2,2.79E2,1.052E3,4.41E2,1.93E2,9.7E1,3.99E2,6.36E2,1.92E2,2.19E2,3.5E2,3.06E2,6.64E2,3.25E2,3.34E2,3.5E2,1.79E2,1.59E2,1.13E2,1.04E2,5.2E2,1.62E2,1.24E2,3.45E2,1.89E2,5.3E2,1.65E2,1.77E2,1.2E2,2.27E2,2.33E2,1.23E2,1.181E3,9.91E2,1.104E3,2.61E2,1.562E3,1.359E3,1.55E3,5.771E3,7.3E2,1.653E3,1.06E2,9.1E1],"tree_param":{"num_deleted":"0","num_feature":"5","num_nodes":"107","size_leaf_vector":"1"}},{"base_weights":[8.799706E-3,-3.5782404E0,1.6727575E0,-4.6246567E0,-2.1502812E0,8.567071E0,2.1006279E-1,-3.9319348E0,-5.59395E0,-1.3532213E0,-3.231911E0,4.8761697E0,1.9411125E1,-1.1604387E0,4.2587757E0,-4.615456E0,-3.1791704E0,-4.363376E0,-6.9045777E0,-2.741133E0,5.6165403E-1,-2.68274E0,-4.081336E-1,8.799219E0,6.131405E-2,8.818948E0,3.5513847E1,-3.8218944E0,-2.4458025E-1,-1.5713185E0,6.301504E0,-4.9762077E0,-2.4739002E-1,-2.695903E0,-4.455021E0,-6.352492E0,-2.9457831E0,-7.290248E0,-5.304403E-1,-3.9588138E-1,-2.3254511E0,-2.1736277E-2,8.9784294E-1,-2.5073764E0,-3.0079108E-1,4.9894004E0,1.4568216E1,-2.2828934E0,3.5454173E0,1.1844091E1,3.0918488E-1,6.146553E0,2.1601906E1,-2.320231E0,-6.181509E0,2.9503381E0,-1.5087752E0,1.8283106E0,-6.9907956E0,2.0618473E1,3.811097E0,-4.7500974E-1,-5.426471E-1,-2.4420813E-1,-3.6988243E-1,-6.120366E-1,-3.0585358E-1,-6.8443817E-1,-4.169179E-1,-3.4134933E-1,-1.1876543E-1,-7.791024E-1,-5.8287835E-1,-2.1913901E-1,-2.5688866E-1,1.3603622E-1,4.4764683E-2,-2.7387148E-1,-2.2547989E-1,4.598768E-2,6.2234545E-1,9.723444E-1,2.174085E0,-1.0582163E-2,-3.0221534E-1,2.007247E-1,8.028931E-1,1.4380968E0,9.211093E-1,3.4207146E0,1.0538163E0,-5.7393146E-1,1.8133152E-1,-5.6924933E-1,-1.0149691E0,-1.5390666E-1,8.0970937E-1,-6.3548666E-1,-1.8300187E-2,-2.4742368E-1,9.7511065E-1,-4.9890074E-1,-7.973872E-1,3.0777183E0,3.429608E-1,1.4484774E-1,1.1142129E0],"categories":[],"categories_nodes":[],"categories_segments":[],"categories_sizes":[],"default_left":[0,0,0,0,0,0,0,0,0,0,0,0,0,0,0,0,0,0,0,0,0,0,0,0,0,0,0,0,0,0,0,0,0,0,0,0,0,0,0,0,0,0,0,0,0,0,0,0,0,0,0,0,0,0,0,0,0,0,0,0,0,0,0,0,0,0,0,0,0,0,0,0,0,0,0,0,0,0,0,0,0,0,0,0,0,0,0,0,0,0,0,0,0,0,0,0,0,0,0,0,0,0,0,0,0,0,0],"id":21,"left_children":[1,3,5,7,9,11,13,15,17,19,21,23,25,27,29,31,33,35,37,39,41,43,-1,45,47,49,51,53,55,57,59,61,-1,63,65,67,69,71,-1,-1,73,-1,75,77,-1,79,81,83,85,87,-1,-1,89,91,93,95,97,99,101,103,105,-1,-1,-1,-1,-1,-1,-1,-1,-1,-1,-1,-1,-1,-1,-1,-1,-1,-1,-1,-1,-1,-1,-1,-1,-1,-1,-1,-1,-1,-1,-1,-1,-1,-1,-1,-1,-1,-1,-1,-1,-1,-1,-1,-1,-1,-1],"loss_changes":[1.7562255E5,1.3922367E4,2.0269216E5,3.590414E3,3.396707E3,1.4071098E5,9.202014E4,1.6014688E3,3.5825938E3,6.042441E3,7.6946875E2,4.9601758E4,1.5199947E5,3.0199898E4,4.9957508E4,1.257793E3,9.116201E2,3.2465664E3,6.296953E2,6.5792285E2,2.5056851E2,5.056494E1,0E0,3.173068E4,9.645697E3,9.319039E3,1.2647972E5,1.1225152E4,3.7239992E4,2.0076748E4,1.1066611E5,1.1736719E2,0E0,2.6818652E2,9.347886E2,4.8803516E2,5.534614E2,5.913086E2,0E0,0E0,2.6516602E1,0E0,1.3848486E2,3.2856934E1,0E0,4.876924E3,1.9769719E4,1.1359324E3,3.2596763E3,2.2254297E3,0E0,0E0,3.1994523E4,2.7428309E4,2.3348672E3,6.04112E4,4.2441188E4,2.2863223E4,7.8674023E2,8.0218125E4,4.5831066E4,0E0,0E0,0E0,0E0,0E0,0E0,0E0,0E0,0E0,0E0,0E0,0E0,0E0,0E0,0E0,0E0,0E0,0E0,0E0,0E0,0E0,0E0,0E0,0E0,0E0,0E0,0E0,0E0,0E0,0E0,0E0,0E0,0E0,0E0,0E0,0E0,0E0,0E0,0E0,0E0,0E0,0E0,0E0,0E0,0E0,0E0],"parents":[2147483647,0,0,1,1,2,2,3,3,4,4,5,5,6,6,7,7,8,8,9,9,10,10,11,11,12,12,13,13,14,14,15,15,16,16,17,17,18,18,19,19,20,20,21,21,23,23,24,24,25,25,26,26,27,27,28,28,29,29,30,30,31,31,33,33,34,34,35,35,36,36,37,37,40,40,42,42,43,43,45,45,46,46,47,47,48,48,49,49,52,52,53,53,54,54,55,55,56,56,57,57,58,58,59,59,60,60],"right_children":[2,4,6,8,10,12,14,16,18,20,22,24,26,28,30,32,34,36,38,40,42,44,-1,46,48,50,52,54,56,58,60,62,-1,64,66,68,70,72,-1,-1,74,-1,76,78,-1,80,82,84,86,88,-1,-1,90,92,94,96,98,100,102,104,106,-1,-1,-1,-1,-1,-1,-1,-1,-1,-1,-1,-1,-1,-1,-1,-1,-1,-1,-1,-1,-1,-1,-1,-1,-1,-1,-1,-1,-1,-1,-1,-1,-1,-1,-1,-1,-1,-1,-1,-1,-1,-1,-1,-1,-1,-1],"split_conditions":[4E0,3E0,6E0,2E2,2.9E1,2.8E2,2.8E2,2E0,2E0,1.2E2,3E1,2.8E1,5E0,9E0,9E0,1.5E2,1.2E2,1E0,3E1,5E1,1.5E2,3E2,-4.081336E-1,5E0,5E0,3E2,2.9E2,8E0,1.1E1,8E0,1E1,7.2E1,-2.4739002E-1,2.9E1,1.5E2,3E1,3E2,3E2,-5.304403E-1,-3.9588138E-1,8E1,-2.1736277E-2,2.5E2,1.2E2,-3.0079108E-1,2.6E1,1.2E2,5E1,2E2,2.9E2,3.0918488E-1,6.146553E0,3E2,7E0,2.5E2,1E1,1.2E1,3E2,2.9E2,3E2,1.5E1,-4.7500974E-1,-5.426471E-1,-2.4420813E-1,-3.6988243E-1,-6.120366E-1,-3.0585358E-1,-6.8443817E-1,-4.169179E-1,-3.4134933E-1,-1.1876543E-1,-7.791024E-1,-5.8287835E-1,-2.1913901E-1,-2.5688866E-1,1.3603622E-1,4.4764683E-2,-2.7387148E-1,-2.2547989E-1,4.598768E-2,6.2234545E-1,9.723444E-1,2.174085E0,-1.0582163E-2,-3.0221534E-1,2.007247E-1,8.028931E-1,1.4380968E0,9.211093E-1,3.4207146E0,1.0538163E0,-5.7393146E-1,1.8133152E-1,-5.6924933E-1,-1.0149691E0,-1.5390666E-1,8.0970937E-1,-6.3548666E-1,-1.8300187E-2,-2.4742368E-1,9.7511065E-1,-4.9890074E-1,-7.973872E-1,3.0777183E0,3.429608E-1,1.4484774E-1,1.1142129E0],"split_indices":[0,0,0,2,3,2,2,0,0,2,3,3,0,0,0,2,2,0,3,2,2,2,0,0,0,2,2,0,0,0,0,4,0,3,2,3,2,2,0,0,2,0,2,2,0,3,2,2,2,2,0,0,2,0,2,0,0,2,2,2,0,0,0,0,0,0,0,0,0,0,0,0,0,0,0,0,0,0,0,0,0,0,0,0,0,0,0,0,0,0,0,0,0,0,0,0,0,0,0,0,0,0,0,0,0,0,0],"split_type":[0,0,0,0,0,0,0,0,0,0,0,0,0,0,0,0,0,0,0,0,0,0,0,0,0,0,0,0,0,0,0,0,0,0,0,0,0,0,0,0,0,0,0,0,0,0,0,0,0,0,0,0,0,0,0,0,0,0,0,0,0,0,0,0,0,0,0,0,0,0,0,0,0,0,0,0,0,0,0,0,0,0,0,0,0,0,0,0,0,0,0,0,0,0,0,0,0,0,0,0,0,0,0,0,0,0,0],"sum_hessian":[2.9422E4,9.323E3,2.0099E4,5.379E3,3.944E3,3.517E3,1.6582E4,3.14E3,2.239E3,2.272E3,1.672E3,2.625E3,8.92E2,1.2389E4,4.193E3,1.643E3,1.497E3,1.157E3,1.082E3,1.317E3,9.55E2,1.018E3,6.54E2,1.446E3,1.179E3,5.39E2,3.53E2,3.171E3,9.218E3,1.088E3,3.105E3,1.405E3,2.38E2,1.088E3,4.09E2,4.8E2,6.77E2,8.69E2,2.13E2,3.33E2,9.84E2,2.88E2,6.67E2,6.67E2,3.51E2,8.72E2,5.74E2,7.05E2,4.74E2,3.52E2,1.87E2,1.22E2,2.31E2,1.939E3,1.232E3,2.613E3,6.605E3,6.69E2,4.19E2,4.59E2,2.646E3,9.43E2,4.62E2,8.71E2,2.17E2,1.85E2,2.24E2,3.9E2,9E1,5.34E2,1.43E2,6.44E2,2.25E2,6.41E2,3.43E2,3.28E2,3.39E2,3.43E2,3.24E2,1.87E2,6.85E2,3.44E2,2.3E2,1.79E2,5.26E2,3.54E2,1.2E2,1.77E2,1.75E2,1.07E2,1.24E2,1.061E3,8.78E2,1.099E3,1.33E2,1.396E3,1.217E3,1.418E3,5.187E3,4.34E2,2.35E2,1.4E2,2.79E2,2.88E2,1.71E2,2.002E3,6.44E2],"tree_param":{"num_deleted":"0","num_feature":"5","num_nodes":"107","size_leaf_vector":"1"}},{"base_weights":[1.344132E-1,-9.4052076E-1,3.2937713E0,7.853918E-2,-2.1949947E0,1.3190363E-1,4.355448E0,-7.7055275E-1,1.3866888E0,-2.7462106E0,-4.715559E-2,5.9294456E-1,2.8448611E-1,-3.3457726E-1,-1.5696289E-1,1.6749649E-1,1.0686852E-1,-1.4347534E-1,-3.391577E-1,-4.1219678E-2,-2.4858546E-2],"categories":[],"categories_nodes":[],"categories_segments":[],"categories_sizes":[],"default_left":[0,0,0,0,0,0,0,0,0,0,0,0,0,0,0,0,0,0,0,0,0],"id":22,"left_children":[1,3,5,7,9,-1,11,13,15,17,-1,-1,-1,19,-1,-1,-1,-1,-1,-1,-1],"loss_changes":[1.00225445E5,2.815019E4,1.5701453E4,1.3497663E4,9.375082E3,0E0,1.1567094E4,2.566669E3,4.3668066E2,6.324289E3,0E0,0E0,0E0,3.1728882E1,0E0,0E0,0E0,0E0,0E0,0E0,0E0],"parents":[2147483647,0,0,1,1,2,2,3,3,4,4,6,6,7,7,8,8,9,9,13,13],"right_children":[2,4,6,8,10,-1,12,14,16,18,-1,-1,-1,20,-1,-1,-1,-1,-1,-1,-1],"split_conditions":[2.8E2,2.8E1,8E0,1.2E2,6E0,1.3190363E-1,9E0,3E0,1.1E1,4E0,-4.715559E-2,5.9294456E-1,2.8448611E-1,2E0,-1.5696289E-1,1.6749649E-1,1.0686852E-1,-1.4347534E-1,-3.391577E-1,-4.1219678E-2,-2.4858546E-2],"split_indices":[2,3,1,2,1,0,1,1,1,1,0,0,0,1,0,0,0,0,0,0,0],"split_type":[0,0,0,0,0,0,0,0,0,0,0,0,0,0,0,0,0,0,0,0,0],"sum_hessian":[2.951E4,2.2019E4,7.491E3,1.215E4,9.869E3,2.62E3,4.871E3,7.368E3,4.782E3,7.477E3,2.392E3,2.384E3,2.487E3,4.768E3,2.6E3,2.506E3,2.276E3,2.467E3,5.01E3,2.504E3,2.264E3],"tree_param":{"num_deleted":"0","num_feature":"5","num_nodes":"21","size_leaf_vector":"1"}},{"base_weights":[-1.2783954E-1,-1.427823E0,1.1473968E0,-2.5540823E-1,-1.9939096E0,1.6753237E0,-1.3439909E-1,-2.3860788E-2,-2.7365834E-2,-2.4742432E0,-4.8492394E-2,7.256122E-3,2.10741E0,